761 128
137 -0.1134008 -0.3473202 -0.097548164 -0.4069822 0.051244523 0.074558325 -0.021285083 -0.5417288 0.029525712 -0.123483405 -0.5001613 -0.24171883 0.35296515 -0.17821746 0.34373784 -0.11294978 0.4306301 0.4100537 0.056062616 0.05000127 0.6944799 0.28064522 0.15062398 0.26904237 0.023224594 -0.22451672 -0.09817249 -0.18748564 -0.34866083 0.0018786548 -0.00025454303 -0.16326036 0.09775533 -0.013402013 0.4150268 0.28979325 0.36250693 -0.014114558 0.05605766 0.03828711 -0.36517322 0.068488024 0.17254132 0.10515403 -0.34312022 0.18320905 0.1411978 0.26717004 0.08355332 0.36225992 -0.3062175 0.049090575 -0.08369602 -0.13233797 0.13947861 -0.081583805 -0.36494318 -0.5351462 0.044534236 0.64573276 -0.16843815 -0.32344967 0.0076574306 0.08725533 0.06324523 0.3647533 -0.2821038 0.42258424 -0.56757855 0.3629258 -0.11868946 -0.2022964 -0.2415935 0.06622826 0.016356068 -0.09022657 -0.007853576 0.51415396 0.6504662 0.3217438 0.24754795 0.08310619 0.04719779 -0.061856344 0.03153105 -0.6262818 -0.25814664 -0.23173633 -0.58698654 0.3775277 -0.61334467 -0.050919652 -0.38910753 -0.39762914 -0.12076756 0.110827 -0.06154898 -0.43800044 0.101491615 0.184824 -0.32515135 0.0063424027 0.21916859 0.11618171 -0.4292589 -0.1467448 0.06937308 -0.36227417 0.25276273 0.15493909 0.3228533 0.5165651 -0.29259336 -0.22493953 -0.064708695 -0.26187587 0.3998064 0.45554206 -0.1696492 0.09200827 0.097209804 0.2742793 0.34522682 -0.16953258 0.33600888 -0.5684918 0.23911107 -0.08151551
10 0.22248752 -0.07311856 -0.22295488 0.005525927 0.111153744 -0.090301774 -0.10763243 -0.04769016 -0.019083377 -0.6711069 -0.105095975 -0.07132262 -0.118719205 -0.1337094 0.48431572 -0.09520384 -0.12469403 -0.19294474 -0.27640727 -0.48339236 0.29324102 0.032090776 0.008014798 0.62907845 0.15919009 -0.45264855 0.16497947 0.22037227 0.66816473 -0.10448342 -0.17961334 -0.12731281 0.19892503 0.018734338 0.023908751 0.23830998 0.41487578 -0.35465747 -0.3109813 0.16388527 -0.30712092 0.06239774 0.2192486 0.18901245 -0.15218443 -0.16040593 0.10909109 0.05727642 0.5535854 -0.18587731 -0.41723487 -0.13243903 -0.055172905 -0.1164501 -0.13274163 -0.2705306 0.005505255 -0.060628284 0.15567887 0.10229283 0.55693555 -0.35870457 -0.076501936 -0.053511355 -0.19047281 0.069810025 -0.3356231 0.42927957 -0.2128412 -0.11506442 -0.3232841 -0.3213754 0.096489914 0.18054892 0.17123164 -0.43804795 0.08042543 0.37166527 -0.023328733 0.22725116 0.08656882 0.20164047 -0.09148043 0.22587416 0.043834403 -0.2873798 -0.40201205 -0.38523847 -0.10310515 0.041359562 -0.23858899 -0.24705108 -0.043200314 -0.24697231 -0.22450045 0.18475415 -0.10431876 -0.039781965 0.11798233 -0.09355665 -0.13491362 -0.32826987 0.009111647 0.2819783 -0.6956128 -0.20862447 0.27934486 0.32957247 -0.12235628 -0.3040199 -0.10609606 0.2339223 -0.27917188 -0.20464028 -0.0434954 -0.012407224 0.107571356 0.13556911 -0.096010774 -0.106736824 -0.09412783 0.026842576 0.2588097 0.16295198 0.28095257 0.040619347 0.22020479 -0.55404913
397 0.1153475 -0.29545754 -0.31453297 -0.017944572 0.20455842 -0.15953206 0.10391118 -0.4313904 -0.120482765 -0.3095109 -0.33351424 -0.252028 0.3226549 -0.34165862 0.14004593 -0.1431266 0.08527956 0.07309947 -0.012482099 -0.2957252 0.5554602 0.13153689 -0.014513713 0.69215375 -0.08413926 0.085936375 0.18159391 0.10855139 0.13473246 0.019753557 -0.2365287 0.03729803 -0.096683815 0.0120097 0.04883227 0.30168337 0.07176588 -0.08668404 0.2209457 0.048181426 -0.28397956 -0.35388055 0.082419254 -0.09199828 -0.18323703 -0.14121342 -0.22883227 0.08522558 0.2501473 7.548659e-05 -0.58969843 0.015463214 -0.066188745 0.189593 0.2842857 -0.17472084 -0.08241115 -0.5534577 0.1917253 0.35858765 0.010268748 -0.47919592 -0.071766116 -0.07682261 0.0836921 0.23740694 -0.15940773 0.59028906 -0.24672806 0.04905625 -0.046703283 -0.4897993 0.13226767 0.22308552 -0.057297952 0.01322121 0.045103338 0.2769925 0.35984257 0.07803819 0.21817093 -0.058009952 -0.11642139 0.23116873 0.08753745 -0.50066304 -0.028475793 -0.28420642 -0.31967616 -0.13141403 -0.30629078 -0.2715856 0.03154987 -0.24553427 -0.15889373 0.3036294 0.0056499587 -0.19926418 0.21308653 -0.013718834 -0.32331896 -0.20602044 0.3687375 0.008888713 -0.48471424 -0.084459275 0.0062223594 -0.05498906 0.14536622 -0.11664408 0.098568656 0.24937095 -0.41556576 -0.04664079 -0.093937874 -0.116914175 -0.00083719415 0.554022 -0.59528464 0.09193386 -0.039519537 -0.15770702 0.2891077 -0.6625687 0.27866116 -0.36535707 -0.086481564 -0.17690238
693 0.039558988 0.15182878 -0.2133348 -0.17446886 -0.044244334 -0.29032204 -0.4945983 -0.4330878 0.36172187 -0.46352103 -0.29002523 -0.26432922 -0.20900495 -0.3216999 0.038104203 -0.13848412 0.22677693 -0.27764222 -0.50425726 -0.019758573 0.20065185 0.43190342 -0.42704946 0.008185943 -0.013652433 -0.30107763 -0.25309595 0.2952089 0.24285033 -0.24455194 -0.35274884 0.2552138 -0.035217214 0.14034103 -0.192784 0.38008028 0.6489216 -0.13570477 -0.2078605 0.30784473 0.018792357 0.5010556 0.1033095 0.0775358 -0.5653219 -0.23955762 0.4635122 0.24794713 0.123643056 -0.32986838 -0.64217764 -0.082728565 0.37949747 0.1153324 0.41660035 0.003332163 -0.22586426 0.13129024 0.07832258 0.37334594 0.40148982 0.12774709 -0.2558063 0.0035392554 0.12061949 0.09844376 -0.63623464 0.5582418 -0.2690194 -0.34371993 -0.15417445 -0.20483088 0.052870344 0.18202275 0.17969061 0.13863051 -0.37226 0.28261557 -0.23880714 0.08416907 -0.036899995 0.24169187 0.23253499 -0.1911874 -0.109348655 -0.30552432 -0.05722019 -0.33541408 -0.20048156 0.33510837 -0.091856785 -0.065680414 -0.13632804 -0.49413633 0.088250495 0.18373764 -0.38819462 -0.35922104 -0.15404741 -0.33035997 -0.10654312 -0.38761523 0.19419365 -0.12710728 -0.29483736 -0.11434862 0.1146948 -0.079991005 -0.018741703 0.06833485 -0.19916265 -0.084236465 -0.4883893 0.088573664 0.29954773 0.05202746 0.120583296 0.061074253 -0.23331007 -0.29946676 -0.19961594 -0.049198896 0.46384472 0.035390202 -0.011474444 -0.10807004 0.3756627 -0.1501198
493 -0.20054449 0.036079876 -0.3547955 -0.15203606 0.035361618 -0.2726384 -0.16312616 -0.7020574 0.17848335 -0.54479563 -0.27016932 -0.29575706 0.30329072 -0.04916266 0.08663243 -0.43895695 0.32502788 0.26516333 0.17751394 0.11757193 0.2996422 0.4696435 0.1503702 0.10749578 0.34763598 -0.437511 0.25935787 0.07283781 -0.24557215 -0.07311215 0.07974369 0.46853384 0.26642245 -0.016928224 -0.12092675 0.40885285 0.13153544 -0.06880072 0.22359104 0.098396085 -0.4098174 0.22654067 0.34062177 0.08915007 -0.31503052 0.24189496 0.30687642 -0.022383379 0.41889206 -0.10305852 -0.3010071 0.2958421 0.3038323 0.071001016 -0.090686105 -0.47785565 0.07712748 -0.48577964 0.019004647 0.460922 -0.13086413 0.31077147 0.062334392 -0.053626705 0.07362032 0.23379287 -0.08852414 0.4121216 -0.7153359 0.1542045 -0.61387527 -0.37072608 0.033474855 -0.15782663 -0.12500732 -0.12567605 -0.46625865 0.5434711 0.06472905 0.37791032 0.09768384 -0.05879298 -0.004270699 0.023929771 -0.12595484 -0.27646688 -0.11931959 -0.34323272 -0.59700334 0.018086458 -0.6337737 -0.27306962 -0.10271433 -0.5575276 -0.39810243 0.05636081 -0.11965994 -0.23767915 0.06272634 0.099174656 -0.23235239 0.17647423 0.25699127 -0.029093105 -0.53669375 -0.42275313 0.39693868 -0.07188346 0.084860064 -0.05432406 0.012486077 -0.07982822 0.063025266 0.1424436 0.021993086 0.0036581818 0.2751483 0.26267874 -0.19953962 -0.29823416 -0.04077112 0.38090673 0.26369593 -0.05060998 -0.0012636788 -0.33482352 -0.111587964 -0.17769106
378 0.17458332 -0.090614386 -0.16020145 -0.17168787 0.22640198 -0.65615404 0.13622606 -0.43278503 -0.25006273 -0.20540293 0.04907211 0.1054138 -0.16398396 0.19921182 0.19075932 -0.17393297 -0.13930304 -0.3647816 -0.4667796 -0.14353628 0.6587123 -0.33670667 0.1557276 0.27247435 0.10822417 -0.8356167 0.22567643 -0.022939362 0.28948873 0.2501428 -0.14644875 0.3096497 -0.3666953 -0.3835158 -0.34862408 0.011543734 0.005410676 -0.22661039 0.15639015 0.4109765 -0.96074015 0.10158095 0.2968665 0.25387636 -0.4454697 -0.13902897 0.63415986 -0.41646132 0.2976254 -0.44943488 -0.012827458 0.16576998 -0.14058736 -0.36208344 -0.17953052 -0.32459745 0.22009283 -0.37234834 -0.4113572 0.54876614 0.72876745 -0.42820466 -0.5576738 0.117615655 0.44918165 0.14114581 -0.29462647 0.23749372 0.15689154 -0.013650241 -0.45476586 -0.676922 0.0077418434 0.05854699 0.05339159 -0.13236818 0.258094 0.583472 0.27659196 0.2480499 0.50889695 -0.06143705 0.0075671645 0.4076298 -0.06636062 -0.25411272 0.12336175 -0.39592037 -0.06772536 0.6978955 -0.18705317 0.30500442 -0.5275935 -0.47718847 -0.25279695 0.050126906 0.5336463 -0.4632358 0.20933686 -0.059813667 0.26263005 0.27324483 0.3538194 0.27006945 -0.8375048 -0.28370497 0.23227361 0.62060213 -0.33522052 0.04312073 -0.15601318 0.6048896 -0.31310076 0.08845003 0.30286545 -0.09476463 -0.16066214 -0.020844067 0.41570735 0.054225847 0.15592468 0.15840505 0.39492166 0.5989896 0.7044948 -0.87684786 0.021515263 -0.4464636
358 0.1801222 -0.014332407 -0.24858116 0.101311766 -0.17829688 -0.59062946 -0.4700906 -0.30575326 0.2549594 -0.47054824 -0.27351072 -0.50360423 -0.37475666 -0.25918937 -0.14503418 0.009103415 0.5098089 -0.08804313 -0.50551784 0.23965485 0.372288 0.48830712 -0.31410593 -0.14569297 0.029899085 -0.3016868 -0.48642698 -0.051156152 0.11336449 -0.16164394 -0.15397684 0.32450706 -0.04013121 0.22529781 -0.40362537 0.2958301 0.60227805 -0.2966699 -0.23738682 0.16268218 0.15186796 0.49576852 -0.07578876 -0.13032861 -0.8228642 -0.33470333 0.061062083 0.37353924 0.07016677 0.0943127 -0.6559911 -0.05167497 0.51730967 0.15945321 0.16724427 -0.031773765 -0.20222183 0.066962145 -0.0865994 0.4946469 0.2697268 -0.068107866 0.005208221 -0.18791385 0.16871677 0.048915885 -0.5614194 0.5974017 -0.055517744 -0.19499876 -0.23586062 0.024814233 0.25886866 0.33748037 0.100912586 0.19280724 -0.21374063 0.1788724 -0.12526546 -0.016667508 0.112237215 0.22909404 0.11957213 -0.36601165 -0.12874518 -0.40983114 -0.21726894 -0.5272265 -0.144541 0.9274484 -0.3176423 0.17350128 -0.19173266 -0.4181342 -0.24474972 0.09052345 -0.18231615 -0.5513003 -0.1406937 -0.055619106 -0.14953196 -0.45235053 0.14588106 -0.1350138 -0.09649885 -0.37593544 -0.19847505 -0.18697254 0.10825494 -0.07662128 -0.02359028 -0.07182906 -0.5141736 -0.08450402 -0.06330409 -0.0006386578 0.13758087 0.15867344 -0.25561833 -0.0662751 0.11430971 -0.11262298 0.5491793 0.12279305 0.05500608 -0.49169376 0.08066138 0.10745475
351 0.1969378 -0.10045147 -0.3081032 0.112411745 -0.25019115 -0.4558048 -0.07169427 -0.34151778 0.24552354 -0.440714 -0.46933898 -0.20075363 -0.3574386 -0.17075749 -0.06202919 0.11123665 0.50663847 0.12576675 -0.48213458 -0.014916591 0.13062342 0.28620544 -0.4184942 -0.13914406 -0.09571863 -0.31359023 -0.48994762 -0.062091522 0.27151492 0.018217498 -0.423653 0.25320852 -0.25822896 0.15080604 -0.23773773 0.48706752 0.7421291 -0.23848762 -0.27037433 0.28720176 0.10658133 0.6725784 -0.009161368 -0.04152279 -0.65923774 -0.47483867 0.0961191 0.32356983 0.20150171 -0.42771673 -0.64890724 0.13977137 0.4191188 -0.1277476 0.026016116 0.11950371 -0.29696885 0.3126525 -0.02026494 0.3135834 0.2141246 -0.23536281 -0.0989749 -0.2769495 0.17578332 -0.058137577 -0.40247568 0.58039385 -0.3296062 -0.31478953 -0.19606283 -0.34057328 0.11756497 0.20263173 0.1843057 0.35786974 -0.37467188 0.2307047 0.06970431 -0.08599946 0.18894719 0.15066148 0.10759909 -0.38746607 -0.10434262 -0.17242007 -0.08306721 -0.32301426 0.22562301 0.5454962 -0.29615948 0.2568561 -0.24374676 -0.37549114 -0.07459298 -0.0056262473 -0.1099596 -0.45101836 0.014303596 -0.19430037 -0.2843301 -0.61824715 0.16052173 -0.029746726 -0.12988658 -0.43923444 -0.3137558 -0.10578923 0.16828422 0.37235552 0.040894493 0.04841835 -0.45147336 0.081626356 0.042582184 0.069366425 0.2460359 0.12308914 -0.0824926 -0.0033878067 -0.025730247 -0.15080519 0.6556998 -0.060530487 0.28205794 -0.3708369 0.32313225 0.1507714
158 -0.08088396 -0.3685529 -0.40559196 -0.022319915 -0.28662628 -0.2632721 0.23349185 -0.39135897 0.008711754 -0.5182446 -0.4450343 -0.3575945 -0.12874828 -0.08258612 0.05850133 0.19943406 0.5761546 0.5650225 -0.33509564 0.049833786 0.18926747 -0.07131987 0.016239567 0.08516639 -0.10583798 0.05485631 -0.14154075 -0.057045173 0.03266591 0.20680654 -0.56264275 0.029358242 -0.3916253 0.01502834 -0.26353005 0.5787504 0.50884354 -0.3279115 0.028209895 0.20204006 0.20502126 0.2539891 0.36800352 -0.14913118 -0.40724182 -0.42270607 -0.31166062 0.25117302 0.09046261 -0.42141634 -0.47618735 0.030914227 0.40347248 -0.29734743 -0.10692482 -0.15110448 -0.32829198 0.07599261 0.30103916 0.06257772 -0.1339038 -0.43181044 -0.07773158 -0.2614995 0.08763818 0.06306734 -0.22849634 0.8323098 -0.37248 -0.22930008 -0.17231044 -0.6033982 0.30726135 0.24916548 0.085102096 0.285915 -0.36492124 0.17588674 0.31994304 -0.18363762 0.23020601 0.12537041 -0.02511699 -0.3295935 -0.27439967 0.10525814 -0.21930376 -0.5101513 0.3941084 0.3157761 -0.028914131 0.28139058 -0.21732843 -0.4043838 -0.2498323 0.08634371 0.044540726 -0.32221624 0.38982475 0.04130569 -0.36963403 -0.1861818 0.1349901 -0.09872134 -0.014790077 -0.38393834 -0.3366705 0.11242355 0.16314995 0.08040521 -0.022020483 0.06394617 -0.5491817 0.29724094 0.3090696 -0.110348344 0.2897699 0.6788554 0.042171113 0.29463223 0.069514774 -0.39458975 0.512626 -0.24031526 0.16189879 -0.62777114 0.07199568 0.097616926
409 0.18539907 0.011041748 -0.16003111 -0.08994106 0.24667536 -0.5838233 0.063526034 -0.4875792 -0.3616137 -0.10861484 0.09193769 0.22751038 -0.23917808 0.2783257 0.04505273 -0.16061792 -0.03085026 -0.16262172 -0.45409518 0.13440536 0.8047502 -0.4550309 0.022462811 0.07368855 -0.01787871 -0.7243321 0.061031736 -0.07052161 0.1680111 0.18441391 -0.19879915 0.40537846 -0.5170021 -0.32591388 -0.36753812 -0.060971305 0.16974959 -0.21493064 0.17848612 0.16779716 -0.96073747 0.33270514 0.38501674 0.03462997 -0.5832579 0.000113433416 0.59413373 -0.3897979 0.029465683 -0.3815653 0.13749315 0.17861947 -0.0071821846 -0.10593774 -0.03507129 -0.2715192 0.18560752 -0.32012612 -0.6027643 0.5263652 0.54314536 -0.5281922 -0.6960585 0.18464181 0.5764752 0.18763651 -0.25175726 0.49010798 0.2377923 -0.17703351 -0.25841898 -0.7249039 0.15385087 -0.051162027 -0.12068875 0.13603802 0.27255106 0.6104237 0.42142084 0.24855104 0.3713026 -0.068529725 -0.11311091 0.24425977 -0.25694323 -0.3348691 0.079726465 -0.4199652 -0.033490803 0.8121253 -0.15125933 0.42100844 -0.54859984 -0.5177123 -0.36305362 -0.09477833 0.57840705 -0.23166592 -0.052534897 0.001697063 0.07362704 0.2609238 0.26288113 0.084940396 -0.8803765 -0.25019124 0.16354984 0.33327615 -0.5112165 0.13714385 -0.13944204 0.5799676 -0.49732617 0.10080897 0.50470316 0.11346114 -0.13885465 0.044549126 0.66732436 0.22634885 0.13719094 -0.040946495 0.49224457 0.60450965 0.56897694 -1.2259554 -0.30320606 -0.38115105
623 0.006911476 0.008683079 -0.24857728 -0.4386048 0.04633119 -0.19953476 -0.28312996 -0.6728816 0.12993436 -0.14826162 -0.06553374 -0.45142642 0.15685236 -0.36669454 -0.045177698 -0.2408298 0.29805106 -0.13262552 -0.11902999 -0.01710295 0.55174536 0.438492 -0.08312057 0.30721813 0.0040385863 -0.08725452 0.27288038 0.2532323 0.0024170086 -0.1717823 -0.25663155 -0.009850554 -0.07567533 -0.022686172 -0.085828245 0.39797738 0.21826847 0.09512033 0.3060784 0.021739325 -0.25486064 -0.003135728 0.049127672 -0.008551874 -0.26895344 -0.0332094 0.10078759 0.24036737 0.040538236 -0.05857907 -0.52021617 0.103637315 0.15712257 0.44460586 0.63625365 -0.12913626 -0.18085049 -0.40400285 0.25285286 0.39308366 0.044345476 -0.10681851 -0.024009373 -0.033795204 0.2750782 0.24046026 -0.30164337 0.78098696 -0.30358744 0.04931518 -0.12374616 -0.47961634 0.24234165 0.08001758 -0.16010287 0.029666407 -0.12008734 0.13821039 0.059968986 0.074929036 0.11357181 -0.11647623 -0.068900526 0.017495984 -0.10789244 -0.56031597 0.15443517 -0.3757712 -0.4950926 0.0067423773 -0.001386535 -0.25115377 0.0126821445 -0.42173564 0.092966415 0.14592251 -0.037923113 -0.30176222 0.08201218 -0.08013387 -0.33692822 -0.15209547 0.2830887 -0.32618472 -0.43675753 -0.10279082 0.08699373 -0.29570395 0.066236116 -0.027675502 0.07887786 -0.04739112 -0.26668832 -0.035644952 0.24673136 -0.14798959 -0.16640781 0.3670414 -0.40200043 -0.086610995 -0.12881222 0.0074270223 0.32858738 -0.5244108 0.027353829 -0.48062095 -0.006697554 -0.1213086
651 0.23545891 0.1124659 -0.19222891 0.28383562 0.18502913 -0.22222443 -0.28518167 -0.21170287 0.13414542 -0.7630844 -0.3986473 -0.013291656 0.1278251 -0.18410017 0.26689902 -0.27747062 -0.086910576 -0.013985013 -0.10862042 -0.28257418 0.24319147 0.23674324 -0.12510219 0.53850645 0.12958829 -0.46485126 0.15007341 0.27774113 0.48009217 -0.02263658 0.0055455826 0.29819864 0.2725193 -0.049497373 0.03990404 0.2550563 0.46299446 -0.39457056 -0.23695652 0.1568379 -0.45075017 0.25947118 0.23884666 0.13944514 -0.4582196 0.0014488767 0.24846941 -0.12261813 0.68129236 -0.18126197 -0.37438223 0.07391431 0.013303413 -0.024505394 -0.1063037 -0.45840573 0.046364468 -0.09001637 0.037844386 -0.059421584 0.17966175 -0.18648827 -0.07140891 0.04594547 0.0028036372 0.12294605 -0.31940424 0.39637104 -0.31915328 -0.16549139 -0.67137724 -0.34761757 -0.10831443 0.17300421 0.13609917 -0.33578774 -0.13097864 0.5958591 -0.007122582 0.48882002 0.14233996 0.22281386 -0.17971855 0.31693754 0.1178099 -0.3739456 -0.5749114 -0.4067468 -0.10839368 0.030580677 -0.5933152 -0.44382647 -0.031599138 -0.25920078 -0.37248376 0.111725144 -0.2793592 0.08129969 -0.032518137 0.06669873 -0.4502315 -0.09712897 0.22966985 0.1923533 -0.8875045 -0.4190344 0.36626714 0.20475042 0.00783974 -0.29432276 -0.32264483 0.117302 -0.33689618 -0.06378612 -0.03709372 0.21874756 0.43894306 0.14317174 -0.27902517 -0.19848487 -0.2679998 0.10991664 0.28864262 0.25673527 0.08889762 -0.12225242 0.09379541 -0.60660774
728 0.19500504 -0.104328625 -0.087541856 -0.12785865 0.001223191 -0.085958295 -0.1475894 -0.07953072 0.2356857 -0.48823062 -0.23630223 -0.35671902 -0.0628256 -0.28280702 0.32376355 0.05924022 0.1717534 -0.03799023 -0.29264805 -0.3554815 0.2215139 0.30312565 -0.20370305 0.3124663 -0.07456823 -0.284022 -0.1558737 0.1792561 0.4240414 -0.112453945 -0.3751693 -0.1807682 0.16849612 0.15097469 -0.05441301 0.19353776 0.5609574 -0.23815021 -0.31972462 0.30404782 0.04853397 0.18283242 0.11604302 0.21894036 -0.33697256 -0.15793025 -0.03357887 0.319439 0.22202054 -0.15029109 -0.6058834 -0.13323537 0.25123763 -0.21421535 0.057879545 0.0051686196 -0.13378629 0.17031457 0.146284 0.370054 0.5104508 -0.19930628 0.04006207 0.08931026 -0.0038219937 0.17495242 -0.40767682 0.76815933 -0.0095670605 -0.28369594 -0.25754955 -0.39521688 0.104690745 0.3686719 0.012363428 -0.15426563 -0.29909447 0.20865826 -0.13074037 -0.043067977 -0.072709076 0.30231383 0.25965798 -0.13280743 -0.078332424 -0.4050426 -0.29094234 -0.2710928 -0.12666014 0.2266641 -0.3018741 -0.07231498 -0.15570854 -0.21880251 -0.2419273 0.2782736 -0.050188143 -0.32792243 0.048822735 -0.19571514 -0.007274271 -0.6259229 0.022077888 0.114170216 -0.42163426 -0.12194929 0.13843893 -0.022482792 -0.043201186 -0.13979979 0.09820069 0.32183334 -0.42641836 -0.1971951 0.1124961 -0.080589205 0.16607094 0.23068428 -0.25396827 -0.04823774 -0.0056441547 -0.11779389 0.29795945 -0.13565467 0.218627 -0.18120362 0.3928246 -0.23853491
707 -0.00846288 -0.027066356 -0.17057917 -0.31896216 0.17560712 -0.34349582 -0.120957315 -0.58627 0.07966039 -0.04083487 0.16579674 -0.46067914 0.3466929 -0.253906 -0.2072835 -7.919038e-05 0.27250475 -0.15402696 0.012974666 -0.096028924 0.72998834 0.48977253 0.08589304 0.3082061 -0.07271999 -0.054557525 0.21805908 0.032274015 0.2050506 -0.058185704 -0.1297814 0.00889952 -0.062678106 0.016305864 -0.1961955 0.122974634 0.09310078 0.01118063 0.20737924 -0.00075755746 -0.4334146 0.1591759 -0.11497958 0.09256386 -0.35351214 -0.05826505 -0.05229366 0.27578998 0.116247885 -0.09311539 -0.7122779 0.2153917 0.1282578 0.33982086 0.5681809 -0.20492779 -0.19907005 -0.6298778 0.2967697 0.5556899 -0.017019818 -0.34844193 -0.096715815 0.26197052 0.34756115 0.27072328 -0.15876392 0.8483784 -0.21596512 -0.06675183 -0.17671397 -0.37508366 0.60975695 0.3441146 -0.029215151 -8.9652065e-05 0.20993626 0.30729088 0.26552242 -0.07628108 0.27751502 -0.15031454 -0.16494228 -0.0028673129 0.2438879 -0.71883833 0.11083662 -0.48304537 -0.6722423 0.25436926 -0.1025799 -0.008568097 -0.21658197 -0.36232877 -0.0827813 0.22880663 0.15907887 -0.41559875 0.24282515 -0.1585155 -0.23017763 -0.13353369 0.2636033 -0.14423607 -0.36153227 -0.271931 0.13424307 -0.27374485 -0.035533693 -0.1274823 0.2241936 0.25579616 -0.16256571 0.0024427092 0.22721341 -0.22578019 -0.21763 0.492682 -0.30488354 0.13192686 -0.10911554 -0.06455694 0.46621788 -0.49037838 0.3527645 -0.77399606 0.0034515038 -0.11266902
512 0.14987095 -0.13498312 -0.14701678 -0.06500147 0.07350901 -0.44590145 0.074489884 -0.1123543 -0.058547452 -0.64609766 0.05881386 -0.07479844 -0.08228165 0.08823095 0.39126578 -0.22033335 -0.19525218 0.0059584538 -0.24480163 -0.58956164 0.3136203 0.072312094 0.13541365 0.5529707 0.112895474 -0.7903413 0.10941957 0.22882684 0.35107622 0.10948109 -0.113985635 0.17201719 0.17618713 -0.014459662 -0.23401228 0.32509524 0.08832466 -0.47827712 0.13857557 0.35082752 -0.52169174 -0.05935484 0.26693377 0.17915739 -0.24063088 -0.18619013 0.31431958 -0.23363838 0.64767617 -0.3507406 -0.2898083 -0.12038374 0.04269259 -0.30583963 -0.48918977 -0.32291842 0.18633042 -0.13715856 0.035651 0.21463181 0.7511041 -0.11454937 0.07529521 0.11023356 -0.19684151 0.07352461 -0.24085279 0.19690688 -0.018100431 -0.1573431 -0.31910262 -0.4059676 0.08253067 0.007180031 0.058688924 -0.3519669 -0.110256694 0.4307122 -0.18471971 0.2519528 0.10239148 0.34888023 -0.09304785 0.50878185 0.018701497 -0.25176817 -0.13842256 -0.39597955 -0.23512928 0.23858728 -0.30986091 0.17500618 -0.1747333 -0.3856952 -0.3391883 0.2985425 0.198982 -0.23250316 0.2915984 -0.13959372 0.4605758 0.006198822 0.26847568 0.1805772 -0.5833109 -0.35141587 0.3543336 0.5749766 -0.11321477 -0.05589503 -0.095553674 0.23312268 -0.24147849 -0.040333834 0.033500127 0.09206474 -0.1693255 0.18265001 -0.070738286 -0.16989672 0.08506411 0.16659166 0.2926184 0.4547069 0.4923277 -0.16797063 0.11914638 -0.5725604
639 -0.13100922 -0.15141395 -0.20449609 -0.21671945 -0.08934436 -0.05270972 -0.16167516 -0.5790136 0.17401092 -0.2520998 -0.17286754 -0.41847876 0.32021797 -0.1879997 0.17697793 -0.2622109 0.5989679 0.2522087 0.17565474 0.15157688 0.525546 0.27042577 0.17029446 0.31951877 0.27836567 -0.0621349 0.33930326 -0.077722706 -0.3738269 0.056055866 -0.033226945 0.11368912 0.16377288 -0.030559689 -0.01760691 0.5896307 0.09549675 0.0674906 0.17214516 0.0112435445 -0.32945523 -0.025912419 0.31662455 0.03830235 -0.27327117 0.11784716 -0.0051967185 0.19482838 0.30463517 0.057524186 -0.28759632 0.239421 0.16421862 0.17715198 0.16860771 -0.41882342 -0.08992659 -0.54894745 0.19425528 0.3109298 -0.22886343 0.05815371 0.1910356 -0.12595224 0.1784505 0.40119252 -0.31216374 0.6628292 -0.6554899 0.08368958 -0.30368966 -0.14291789 -0.058696575 -0.07396376 -0.19849496 -0.14778034 -0.026255792 0.3178081 0.33701518 0.34104455 0.1467499 -0.15189563 0.028656019 0.08210825 -0.17915435 -0.4618873 -0.0210473 -0.4761526 -0.40117297 0.14338183 -0.32861245 -0.2246557 -0.043319315 -0.46343964 -0.14879936 -0.05248774 -0.1689913 -0.34919068 0.24079737 0.054532718 -0.44548124 0.04535826 0.23855226 -0.13280685 -0.4273276 -0.16578786 0.056291178 -0.13921605 0.056119125 0.12932876 0.1382855 0.10657522 -0.26884037 0.040477194 0.057833306 -0.21386576 0.29894033 0.39234334 -0.2884468 -0.029573979 0.09074618 0.0910361 0.31851453 -0.32384223 0.014539411 -0.5056358 -0.1370193 -0.014771179
686 0.04495443 -0.09282163 -0.22255562 -0.38931316 0.048867036 -0.058524355 -0.07167435 -0.6187749 -0.10599514 -0.41582254 -0.28177834 -0.44820723 0.16176078 -0.34583417 0.11325655 -0.28305003 0.14626105 0.28505695 -0.12622665 -0.066299066 0.5549364 0.14194319 0.01896042 0.17213243 0.13728516 -0.15502399 0.35598913 0.16575572 0.102214776 -0.25736374 -0.29020342 -0.47410375 -0.018068612 -0.03449456 -0.05909765 0.3309342 0.32100698 -0.099975415 0.15070906 0.08856181 -0.210196 0.00018582377 0.13133053 -0.13729015 -0.20453425 0.035991352 -0.04686411 0.19217218 0.21290927 -0.095171236 -0.25781375 -0.08099137 0.124444656 0.21880849 0.4423009 -0.11858724 -0.106766514 -0.3987451 0.22368225 0.4520533 0.2699501 -0.20301113 -0.07117061 -0.17996976 0.09211945 0.06795754 -0.16104499 0.7389701 -0.3186268 0.096801385 -0.38585535 -0.84764546 0.36659425 0.08713312 -0.070627764 0.11992718 -0.39575422 0.22309077 0.07190226 -0.048856262 0.09570196 -0.24219269 -0.029211733 -0.057262372 -0.18152641 -0.4584134 -0.10785343 -0.42765957 -0.26158845 -0.2439814 -0.14631747 -0.3793464 0.0023403 -0.35556802 -0.05965735 0.2640249 0.35151345 -0.25088775 -0.007062826 0.15311983 -0.31361952 -0.043131363 -0.031247444 -0.05638541 -0.5279621 -0.14706157 0.24463342 -0.2642105 0.10649208 -0.18643102 0.10454058 -0.18620084 -0.18956104 -0.15244125 0.24924228 -0.054922897 0.0036711341 0.42256767 -0.29672512 0.26707065 -0.22148895 0.05554165 0.019833822 -0.26725057 -0.015623318 -0.3900024 0.0660881 -0.2827911
761 -0.06249008 -0.18748339 -0.18504429 -0.07819835 0.171003 0.03963957 0.16362861 -0.27113926 -0.028258428 -0.77256083 -0.28918424 -0.19628777 0.014554699 -0.113672964 0.15575624 0.37190947 -0.14867917 0.08473088 -0.08550286 -0.6280357 0.39635018 -0.14045554 0.084856205 0.54529226 0.015611826 -0.12085848 0.12352367 0.28868055 0.4400255 0.023702806 -0.18858388 -0.09228022 -0.011744692 -0.07538204 0.051347118 0.19457586 0.20879626 -0.3444183 -0.13731577 0.3515752 -0.23314002 0.03008373 0.49255526 0.10173871 -0.3404721 -0.15129326 -0.29415587 -0.079149954 0.4669482 -0.43890512 -0.3004549 -0.14718018 0.093087696 -0.12205815 0.0108712725 -0.045859355 -0.007039501 -0.13341007 0.36245063 -0.049059458 0.3459469 -0.33449876 -0.07278601 0.18526913 0.17140986 0.03482531 -0.2091828 0.6728845 -0.22395816 -0.36994877 -0.4357773 -0.8070659 0.1832199 0.28730884 0.29452628 -0.105488844 -0.12059525 0.28130257 0.3401072 -0.18283252 0.2973237 0.5033551 0.028328836 0.33026376 -0.08825129 -0.25043845 -0.2598386 -0.37602922 0.05049007 -0.202917 0.08790151 0.0032183398 -0.17985615 -0.29067084 -0.274087 0.2764865 0.03334799 -0.12756473 0.42938203 0.0006344622 -0.010720249 -0.028096154 -0.13212211 0.29015937 -0.5334936 -0.31264976 0.13075264 0.25298503 -0.08716253 -0.35946664 0.24979894 0.40747795 -0.35221183 -0.1062475 0.2566872 0.00095855375 -0.0045709545 0.14929804 -0.036144014 -0.00025244078 -0.06274708 -0.31594014 0.25956982 0.09201485 0.18849973 -0.35570014 0.08123258 -0.3955905
159 -0.07528702 -0.32475707 -0.35102922 -0.0034454688 -0.34524378 -0.2686482 -0.16880363 -0.3856861 -0.022694541 -0.51888895 -0.23421234 -0.59695417 -0.13528126 -0.107898675 0.1297844 0.06288442 0.7512888 0.42903697 -0.26313797 0.46897283 0.43649104 0.026726633 0.17536809 0.028617872 0.11351347 0.008730115 -0.0038546342 -0.21291043 -0.27158645 0.16013752 -0.25704885 0.1376952 -0.09802904 0.06124649 -0.42509592 0.6024066 0.35359585 -0.23070577 0.03328817 -0.052328926 0.113657184 0.15415072 0.4988871 -0.21002518 -0.53100294 -0.25329447 -0.33516917 0.33917758 0.056352854 0.030698068 -0.2841837 0.0928951 0.51584315 -0.020349238 -0.124336965 -0.4289952 -0.2117762 -0.24604598 0.1289232 0.11519589 -0.18868393 -0.09529291 0.18912128 -0.38751313 0.07882303 0.21587928 -0.3720308 0.8239752 -0.45797366 -0.098079346 -0.43124714 -0.26579845 0.22207527 0.09837022 -0.086824395 0.07998798 -0.23051544 0.2498307 0.22974063 0.0065012523 0.17668293 0.059259925 0.009078672 -0.25986755 -0.51813513 -0.028982231 -0.25818786 -0.74873006 0.15357973 0.54528755 -0.15155551 0.07924886 -0.16462459 -0.54339635 -0.42674115 -0.07470241 -0.09570978 -0.42405668 0.31218132 0.20524706 -0.30554068 -0.031928174 0.043667447 -0.097760364 -0.08486178 -0.31173515 -0.22352724 -0.051393993 0.011683531 -0.19118856 0.09317549 0.0098247845 -0.5316024 0.118085206 0.16203758 -0.24038056 0.3551915 0.6064649 0.008108101 0.21340132 0.29117727 -0.18354282 0.5284861 -0.04676346 -0.11456605 -0.7916566 -0.23070846 0.15958166
393 0.17101635 -0.08069303 -0.27027428 -0.082288146 -0.045537047 -0.6036959 0.024508845 -0.36439425 -0.13591744 -0.7240442 -0.07837027 -0.10492002 -0.05812862 0.06869851 0.50996804 -0.53451496 -0.017518139 0.18203892 -0.2739339 -0.63832784 0.16919482 0.23827647 0.29628742 0.32548946 0.20759343 -0.95896536 0.115372464 0.3564235 0.23686112 0.082459874 -0.0015383526 0.39408648 0.43058056 -0.04627718 -0.16585459 0.4107648 0.19927955 -0.666367 0.3414884 0.25090817 -0.5199755 0.026788676 0.2781961 0.06787448 -0.20295162 -0.058421142 0.4851345 -0.3299776 0.70929694 -0.31631014 -0.1955366 -0.18263276 0.12550543 -0.02400277 -0.5288351 -0.33671126 0.2324825 -0.20339511 0.013750771 0.32415515 0.8202791 0.09438726 0.19454508 0.012100673 -0.31158364 0.08257357 -0.1969986 0.08463194 -0.13220233 -0.010727398 -0.3332341 -0.37165806 0.12252822 -0.26032063 0.22622794 -0.17838703 -0.46582 0.38218197 -0.17158203 0.43544924 0.023945503 0.2370972 -0.075666696 0.48590556 0.072395794 -0.16848387 -0.1684798 -0.40971842 -0.46532375 0.29392594 -0.5401143 0.24890968 -0.11118175 -0.47071654 -0.33731386 0.20761763 0.16729583 -0.3425775 0.14082304 0.019263271 0.507804 0.16748399 0.36590296 -0.07138586 -0.70206946 -0.34007573 0.41384745 0.5374299 0.12730594 -0.00041630925 -0.36389893 -0.040179137 -0.19811451 0.10787607 -0.08536853 0.24012321 -0.07656685 0.34775168 -0.15418842 -0.33440667 0.100328095 0.54293466 0.27492982 0.5666273 0.3533931 -0.074936636 0.04308076 -0.5456192
22 0.17073156 -0.111817695 -0.17703128 0.17940281 0.1538012 -0.04203942 -0.054978207 -0.30855402 -0.07581503 -0.69784313 -0.07335673 -0.25757498 0.21693838 -0.18101437 0.14049028 0.22581634 -0.013420252 0.10914308 -0.14933072 -0.64295137 0.57206076 -0.06998707 -0.022500053 0.6322343 0.101851955 -0.022803314 0.12605977 0.08411942 0.19005556 -0.03011551 -0.03105688 -0.062733226 -0.010959365 -0.043403737 -0.044900052 0.3079555 0.26454845 -0.098896995 -0.14246812 0.076137066 -0.24448884 -0.08668678 0.22516985 0.21741416 -0.43341845 0.017179914 -0.34781697 0.08187511 0.4086884 -0.11588964 -0.3962943 -0.19577973 -0.13497587 0.1275124 0.16112521 0.0047840434 -0.09504948 -0.33224556 0.3749992 -0.07978223 0.29844534 -0.55661315 0.090967745 0.050934188 0.027848 0.124146946 -0.2631101 0.42516086 -0.23441729 -0.15460353 -0.18854474 -0.33237827 0.20340492 0.22172207 0.2539076 -0.15063676 0.123469785 0.15479308 0.46033308 0.020965558 0.20623092 0.3448889 0.008168853 0.45734572 -0.08498362 -0.5903685 -0.1768814 -0.37836635 -0.37668404 -0.027584298 -0.038253043 -0.04417207 0.07995691 -0.32796445 -0.20955712 0.3047907 -0.09130239 -0.27193326 0.30799913 0.058614794 -0.22208573 0.020807331 0.20388606 0.34708092 -0.6534699 -0.25472343 -0.0069840015 0.111308575 0.09221986 -0.34491313 0.25154945 0.41380975 -0.31003296 -0.23193517 -0.0013175714 -0.15685843 -0.084729254 0.1535788 -0.29454637 0.03680261 0.03677002 -0.2032322 0.38591117 -0.17874216 0.31640851 -0.1359127 -0.052338235 -0.31884703
184 0.41973504 -0.052956995 -0.51033145 -0.25771534 0.2831758 -1.2253832 -0.38321245 -0.28451946 0.124715336 -0.25317696 -0.5272172 0.2263895 -0.24134769 0.1558923 -0.022583252 -0.16637698 0.035846002 -0.24453205 -0.45924106 0.3181639 0.09608794 0.6605831 0.42267403 0.3453029 -0.39162505 -0.47308362 -0.30833232 0.21181563 0.29301497 0.049552523 -0.32960555 0.020345585 0.12470276 0.5412425 0.070141345 0.2050039 0.47162384 -0.66980904 0.22175683 -0.4296965 -0.97883725 -0.14770386 0.9604141 -0.23481038 -0.72641814 -0.23759753 0.23911652 0.30876565 0.2508504 -0.4293237 -0.12838359 0.10033256 -0.17508647 -0.3005589 0.40883273 0.2803997 -0.40743515 -0.13570718 0.31351292 -0.2214614 -0.082248844 -0.06068907 -0.12692903 -0.18658319 0.09125203 0.21802428 -0.3893749 0.4876197 -0.021268135 0.35794288 -0.21907397 -0.683573 0.24173221 -0.23343885 0.59839106 0.137146 -0.23505385 0.49417174 -0.073464766 -0.27803966 0.37356597 0.02736538 0.011039773 0.10794106 0.049282875 0.3964558 -0.35008773 -0.14252374 -0.32733077 0.8469434 -0.26833242 0.70702285 0.042474624 -0.22139251 0.24787934 -0.72732884 0.12910141 -0.0902175 -0.026962422 0.0009395199 -0.03263689 0.7386227 0.5871566 -0.04126053 -0.5300331 0.08732294 -0.14779256 -0.05087002 0.060942687 -0.0068994476 0.20783596 0.4625282 -0.13959308 0.46409714 0.14893453 0.38463694 0.054062273 0.619467 0.503496 -0.058411255 -0.14957029 0.073090374 0.9965815 0.073798135 0.84881264 -0.7647687 -0.37888843 -0.32783806
520 -0.035822567 -0.17936213 -0.19192307 -0.20654786 0.027540673 -0.035903156 0.032486808 -0.34695888 0.13058196 -0.7312985 -0.34357393 -0.42756107 0.15809107 -0.30710465 0.10180222 0.016265335 0.05470413 0.34778643 -0.021868102 -0.31587356 0.22498657 0.22868273 0.014051455 0.17130806 -0.0927166 -0.12099003 0.1580281 0.0668447 0.2501945 -0.25422916 -0.362357 -0.46680805 -0.0027971608 0.10910929 0.01760149 0.3564668 0.3612397 -0.24597277 -0.072518 0.34080958 0.010399529 -0.00788537 0.23721273 -0.0011132904 -0.25468782 0.046617936 -0.2472053 0.15201351 0.32529306 -0.25712928 -0.44245204 -0.18619184 0.1670568 -0.15747356 0.19828023 -0.009422015 -0.22840366 0.008607279 0.4194682 0.46618333 0.3498735 -0.06775267 0.040542725 -0.0031854687 0.20762105 -0.0923807 -0.14901896 0.8202819 -0.14917706 -0.16105099 -0.45405787 -0.8814002 0.29365 0.45396802 -0.09481899 0.082921706 -0.66666824 0.15970126 0.08667954 -0.28641257 -0.0024150321 0.2413275 0.22099893 -0.05536444 -0.14720225 -0.34262136 -0.27680206 -0.14045686 -0.15734307 -0.2980014 -0.16795811 -0.3122307 -0.16568825 -0.28882292 -0.24599683 0.4012476 0.29020572 -0.25079566 0.15390079 -0.058163173 -0.079851955 -0.25248882 -0.092253506 0.15521826 -0.39550373 -0.23429501 0.13856278 -0.1817769 0.21347857 -0.14561026 0.28173852 0.2009694 -0.263872 -0.17704116 0.38702738 0.11318076 0.08094417 0.31441343 -0.3071944 0.1592458 -0.121366546 -0.2266523 0.19408718 -0.397049 0.119996294 -0.22431447 0.21911053 -0.22423905
171 0.21500114 -0.032235038 -0.12800379 0.35813254 0.16380353 -0.26552764 -0.1135472 -0.21438375 0.00033700146 -0.72868294 -0.03285431 -0.2866363 0.009292386 -0.23067074 0.014140127 0.41389206 0.084294386 -0.0720534 -0.40856197 -0.69396716 0.48313245 0.009620266 -0.06007937 0.3228914 0.0773411 -0.14091785 -0.3966289 0.05655001 0.24236178 -0.080021344 0.10168233 0.078664795 -0.042562712 0.052586287 -0.15050296 0.055648472 0.44374782 -0.18476343 -0.13103853 0.048896387 -0.273952 0.23039453 -0.05578627 0.21771726 -0.8087781 0.034400057 -0.42923462 0.16045883 0.110279925 -0.038945585 -0.52671087 -0.10041356 -0.01980042 0.17885135 0.18828593 0.10214342 -0.14492075 -0.34086373 0.24250253 0.14948522 0.333554 -0.7248387 0.08528638 0.16927554 0.059284993 -0.011582224 -0.35752046 0.23591901 0.11948214 -0.12996274 -0.17597966 -0.0919265 0.33843806 0.3919372 0.59162027 0.05969827 -0.021927675 0.16323787 0.40364438 -0.1294443 0.20005327 0.49727955 0.14814833 0.29612383 0.06548346 -0.6521794 -0.35336414 -0.353996 -0.59226805 0.43179765 -0.4298445 0.3963528 0.0002935422 -0.29492486 -0.32387778 0.29967466 -0.19113113 -0.5236468 0.097135596 0.026162505 0.058245666 -0.14931677 0.25812426 0.41833276 -0.6174671 -0.15858467 -0.14481081 0.000409116 0.17270814 -0.30964628 0.30304623 0.57059 -0.24047354 -0.14623095 -0.1063485 -0.08101182 -0.09059625 0.119455606 -0.2628132 0.041317657 0.10338278 -0.20089534 0.56402653 0.05831406 0.4797852 -0.21019952 -0.13597903 -0.10729898
661 0.14425355 0.15776497 -0.18865523 0.03834657 0.012152474 -0.33809888 -0.32077226 -0.42384982 0.31017533 -0.5555396 -0.37141854 -0.17131615 0.19891605 -0.0961559 0.15845044 -0.48948345 0.01871684 0.09401394 -0.058792144 -0.20274606 0.20621519 0.5075587 -0.17372622 0.34894085 0.17607239 -0.58932525 -0.023719683 0.31304398 -0.024411226 0.07762583 -0.009008867 0.4826633 0.32480082 -0.017227603 -0.081661716 0.46745956 0.3847909 -0.20068693 -0.035126403 0.122202344 -0.39858016 0.29204544 0.25873244 0.12097545 -0.40723848 0.13264762 0.4590431 0.023642177 0.5791617 -0.16926318 -0.4172769 0.115118206 0.21117947 -0.04399913 -0.22625284 -0.40503737 -0.009424862 -0.07984659 0.011813934 0.22731793 0.20338598 0.1187765 0.12695579 0.06410629 -0.12438396 0.10700602 -0.29653242 0.21528658 -0.5132647 -0.0761638 -0.4393229 -0.15523 -0.26682672 -0.04406564 -0.057010032 -0.2733526 -0.39045873 0.48186454 -0.17500162 0.66281646 0.007219971 0.20465107 -0.076266564 0.16763867 -0.030362854 -0.41197294 -0.35442856 -0.29017183 -0.41444248 0.15012181 -0.579926 -0.23527001 -0.054633606 -0.4389344 -0.28429377 0.13376221 -0.33021662 -0.1719495 -0.12124873 -0.027856793 -0.19836712 -0.05878879 0.36801508 0.01064817 -0.5582315 -0.4562753 0.3856403 0.06422149 0.13357303 0.07618925 -0.2558625 -0.11583473 -0.1628222 0.013716124 -0.11097197 0.11070906 0.3274438 0.21839714 -0.35391116 -0.39415714 -0.107759364 0.32770792 0.3710503 0.23607409 0.031119356 0.006512432 0.20089707 -0.34720695
485 0.17956474 -0.555487 -0.49936244 0.04000775 0.3005603 -0.13355155 0.35534397 -0.11354988 -0.05557535 -0.31047004 -0.49880284 -0.26104012 0.044900622 -0.4090715 0.22259966 0.0027565314 0.2356323 -0.013218676 -0.327639 -0.0696991 0.013007659 0.25749853 -0.2613008 0.24650477 0.2442237 -0.10529776 0.083034456 -0.29929087 0.124667786 -0.08958109 -0.3873202 -0.13988978 -0.1566187 0.03511114 0.29240268 0.31939128 0.32536733 -0.14769563 0.061396882 0.047728404 -0.05366272 -0.17669874 -0.30749187 -0.18788107 -0.17343445 -0.36165452 0.03338186 0.38588336 0.40039483 -0.0059336633 -0.62735987 0.07989788 0.05826727 0.13767722 0.5533692 -0.015380508 -0.06845746 -0.17935285 -0.100073375 0.3940307 0.14447029 -0.5651783 -0.31746945 -0.5147252 0.27843222 0.19986208 0.04797619 0.76530445 -0.22064555 0.45843837 0.017577227 -0.48219928 0.5071487 0.017887495 0.030468388 0.30383354 0.31961626 0.29157692 0.43254992 -0.2151804 0.21393086 -0.2284528 -0.01576682 0.0928691 0.070246495 -0.21407191 0.005514216 -0.20376325 0.1142919 -0.09210403 -0.2823186 -0.28187937 -0.16145736 -0.27489892 0.09527816 0.2280119 0.18632267 -0.27765915 -0.05133368 -0.00075207895 -0.29645658 0.0023242931 0.45938793 -0.033507235 -0.44297025 -0.16493082 -0.36211747 -0.09480099 0.09032068 -0.112161934 -0.18012087 0.13634124 -0.29606295 -0.07222693 -0.024880683 -0.055858508 -0.22391018 0.6393857 -0.14196417 0.18103188 0.09815075 -0.0065525975 0.14747497 -0.29218873 0.52872294 -0.7308381 -0.3239851 -0.18868405
77 0.14672501 -0.355243 -0.16495107 0.03388652 -0.06332823 -0.2298571 0.12798017 -0.053298835 0.18621436 -0.28849143 -0.4920436 -0.20264962 -0.12701282 -0.12623312 0.19480854 0.19881475 0.37218705 0.020047776 -0.3362504 -0.059231583 -0.011142536 0.25329542 -0.47686142 0.1038719 -0.055242296 -0.26528493 -0.44105244 -0.2577189 0.2756885 -0.051748425 -0.45403087 -0.026014937 -0.1038217 0.25140595 0.005006629 0.41037413 0.6726854 0.016886171 -0.42506412 0.22195004 0.013198462 0.33219743 -0.28675327 0.019795923 -0.37652615 -0.55035675 0.1770884 0.4819321 0.30534983 -0.39850157 -0.7772671 0.06543562 0.15821593 -0.28511947 0.1924038 0.013757284 -0.23985705 0.2866107 -0.120942846 0.5133508 0.3312328 -0.39036325 -0.08616703 -0.19699875 -0.06000226 -0.05589175 -0.26792264 0.66830117 -0.16463293 -0.13530321 -0.17896955 -0.285088 0.10960275 0.2389176 0.07016061 0.24799486 -0.07209145 0.4121821 0.13718145 -0.11807715 0.10501185 0.055908065 0.29239202 -0.14777538 0.019005012 -0.3260032 -0.1586595 -0.06520406 0.1377532 0.35853937 -0.45525417 -0.026403414 -0.26697597 -0.26605922 -0.09453789 0.21801035 -0.060820766 -0.4945219 -0.09440482 -0.14313221 -0.048461553 -0.5665126 0.29672667 0.42612734 -0.25965822 -0.24874125 -0.16233668 0.027538572 0.046532664 0.2576523 -0.06596567 0.3577737 -0.30298877 -0.08216457 0.03665877 -0.15634757 0.17963931 0.27582702 -0.06155203 0.022333259 0.059395365 -0.07444937 0.44130307 -0.11502926 0.56300473 -0.37604004 0.40107852 -0.061903693
587 0.27674863 0.012087614 -0.30998507 -0.20406707 -0.11509694 -0.051159088 -0.25862446 -0.6544412 -0.36018413 -0.44211 -0.01425163 -0.37955597 -0.05605406 -0.29564023 0.50959295 -0.4193722 0.47357234 0.33084464 -0.3080952 0.3157836 0.7390408 -0.11244031 0.044398025 0.26688284 0.20559803 -0.19044103 0.38201806 0.17003052 0.053635757 -0.0773412 -0.1834685 -0.35094234 0.13159804 -0.21070653 -0.42662355 0.5327308 0.36989355 -0.22829285 0.21097626 -0.10191923 -0.2126293 0.052415922 0.46140894 -0.14371108 -0.2732267 -0.08537089 -0.080940254 0.22299525 0.14937887 0.22345205 0.041864734 -0.08464371 0.026234334 0.22351474 -0.11327338 -0.24030963 -0.21727583 -0.35854205 0.3203592 0.26519814 0.015104612 -0.31667152 0.15228531 -0.6006747 -0.040175743 0.30138448 -0.27885014 0.7550458 -0.32717276 0.15771237 -0.5575659 -0.53797543 0.19126633 -0.08105415 -0.24814872 -0.09742247 -0.39784044 0.24213563 0.20577516 0.20105442 0.14060917 -0.26367188 -0.21344991 -0.032758426 -0.39742452 -0.4799001 -0.0038645116 -0.7574114 -0.013653972 -0.034772765 -0.22052671 -0.24851882 0.07379977 -0.44021875 -0.25889996 -0.13282926 0.42560259 -0.3051899 0.20857517 0.21032229 -0.6664983 -0.07048795 -0.025692385 -0.113778174 -0.6024916 -0.21433026 0.23747048 -0.24532147 0.02513378 -0.2145604 0.24436629 -0.09014919 -0.3555621 -0.08687216 0.07914405 -0.027684195 0.10227204 0.3445039 -0.047260396 0.37361303 -0.035995983 0.20974289 0.22427164 -0.16770945 0.10035296 -0.5611791 0.03456859 -0.06565712
482 0.32034186 -0.13893035 -0.52776325 -0.92722654 0.25630376 -0.5885722 0.010035615 -0.731412 -0.5929903 -0.24573871 -0.24958387 -0.30828154 -0.38793594 0.23886254 -0.14418407 -0.1616433 -0.69469357 0.06094188 -0.46286654 -0.027956799 -0.08257526 -0.43500978 -0.28390527 0.33096835 0.24318358 -0.9265696 -0.2802155 0.22732867 0.41002166 -0.4461993 0.25620836 0.124015816 0.1262148 -0.23873612 -0.014481144 -0.11492609 0.8363577 -0.71674746 0.33314303 0.14250907 -0.817332 0.06430289 0.23858128 0.06649288 0.014998256 0.46753123 0.2845559 -0.28651813 0.10956619 0.020291312 0.10818422 0.24949704 0.04217988 0.0018771638 0.455948 -0.0099458 -0.28164464 0.03091052 -0.17049795 0.1892762 0.23168558 -0.26785067 -0.27013424 -0.15707651 0.7509197 -0.28518963 -0.36189428 0.38893488 -0.012803431 0.45887437 0.13820156 -0.28468227 -0.018568326 0.040266365 -0.2684832 -0.35046554 -0.48102218 0.36431065 0.69540644 0.3744373 0.21877265 0.13895135 -0.117737375 0.3483781 -0.37098986 -0.3075517 -0.8963486 -0.71175516 -0.82376593 -0.003198985 -0.0756173 0.9037792 -0.07650958 -0.3657878 -0.6432232 0.31489384 0.10319541 -0.18025534 -0.269745 0.26310676 -0.9653823 -0.015937606 0.36119226 -0.12842168 -1.100752 -0.22682406 0.13608268 -0.42099726 0.31880105 0.44555986 -0.2260248 0.5135399 -0.58692944 0.28993952 -0.11901689 0.48782063 -0.4229892 0.6041271 0.7056505 0.024736935 -0.1495785 -0.15892951 0.5944562 0.577096 0.69915575 -1.127283 -0.2034723 -0.0931055
229 0.024871502 -0.17140275 -0.34003988 -0.093422234 -0.23782551 -0.029204175 -0.29734546 -0.45300394 -0.070900805 -0.36381063 -0.08711074 -0.48643634 0.01854863 -0.16713679 0.3106667 -0.23737615 0.76652265 0.45300078 -0.05083651 0.39863268 0.63324136 0.0820256 0.21030591 0.18813415 0.18782876 -0.024945226 0.31330475 -0.121969454 -0.2148827 0.103978805 -0.11011038 -0.020787258 0.13778296 -0.0923767 -0.35084948 0.63530123 0.21619576 -0.24785039 0.13391337 0.006029164 -0.08365065 -0.04206781 0.5024358 -0.10887302 -0.41518813 -0.06840212 -0.16486916 0.21167934 0.2783812 0.16031563 -0.102478266 0.018080696 0.24500044 0.13858776 -0.14299111 -0.44790784 -0.13740315 -0.41892323 0.23367596 0.25900367 -0.16672449 -0.022617325 0.226688 -0.39209792 0.13818339 0.37863162 -0.38653117 0.8436314 -0.46801326 -0.058526535 -0.46761084 -0.2202234 0.12674153 -0.02477666 -0.23580801 -0.104284674 -0.15646452 0.25237674 0.3468793 0.25152513 0.16620359 -0.11874098 -0.09710809 -0.1365899 -0.4145336 -0.30704385 -0.04533635 -0.7641657 -0.0051675094 0.28116727 -0.20959787 -0.19283812 -0.11134399 -0.49852872 -0.33994016 -0.11368326 0.124460176 -0.37890106 0.36868042 0.16700877 -0.516978 -0.009263521 0.046630185 -0.17164859 -0.27319828 -0.26037103 -0.060132116 -0.08265604 0.078178 -0.04753389 0.15232538 -0.0063057346 -0.45858702 -0.015118468 0.06953655 -0.15423237 0.36336878 0.5231826 -0.07261815 0.2800756 0.15937428 -0.031866513 0.33986533 -0.20764945 -0.08563348 -0.71243846 -0.18728243 0.04953067
169 0.09244312 -0.58780164 -0.5156106 0.058338318 0.100269906 -0.25975657 0.29141286 -0.09624734 -0.0006858169 -0.66401875 -0.59608364 -0.24635342 -0.25505278 -0.4191503 0.28933546 0.24353306 0.27027747 0.13798508 -0.55464816 0.086272694 -0.11320662 0.19983478 -0.32982028 0.13295707 0.031731736 -0.071207985 -0.22480634 -0.28563398 0.20680322 -0.19912456 -0.5939923 -0.04310716 -0.29484937 0.19854277 0.24789259 0.5416534 0.68998307 -0.23812 -0.17766476 0.22631931 0.17860565 -0.025249312 -0.16649863 -0.23990774 -0.18535556 -0.59870505 -0.00288098 0.48250794 0.20825621 -0.050276645 -0.70720917 -0.13048601 0.20836726 -0.024105722 0.33497357 0.0768291 -0.2507575 0.14376934 -0.06022966 0.4003633 0.165288 -0.44018266 -0.29509705 -0.6111481 0.19552249 0.0017320045 -0.10231409 0.87632394 -0.21578544 0.36753452 0.038138274 -0.57342136 0.54508907 0.14480056 -0.031501573 0.3587062 -0.07938821 0.28473648 0.38384888 -0.36197573 0.063915044 0.07067509 0.081785895 -0.106766835 -0.15708245 0.14170101 -0.12090454 -0.20960101 0.3120108 0.11136596 -0.22256213 -0.111951895 -0.23283167 -0.33559573 -0.10009382 0.2230557 0.06567466 -0.30940777 -0.013235906 -0.09409064 -0.19853374 -0.27195618 0.2575908 0.042689465 -0.23772009 -0.260931 -0.46799177 -0.00012909854 0.17511089 -0.077398024 -0.1777555 0.27756262 -0.4969311 0.029613268 -0.0385156 -0.06002161 -0.09447942 0.57284707 -0.036652565 0.14260478 0.10873472 -0.18467033 0.3343571 -0.31565797 0.4552852 -0.59802383 -0.11912725 -0.08842385
76 -0.42538726 -0.3480062 -1.1748381 0.09149062 0.5538529 -0.32158273 0.36265886 -0.335059 0.12548096 -0.16735244 -0.3890929 0.18901688 -0.113763005 -0.018745817 0.63821167 0.029930359 0.68862414 -0.35161173 -0.044214137 0.35292083 0.05625067 -0.21648116 -0.1972864 -0.11647406 0.017414061 -0.6633153 -0.4004903 0.012591733 0.5432024 -0.61126167 0.23105264 0.4284128 0.50921273 -0.075574264 -0.02079222 0.8134945 0.36812994 -0.042059023 0.2663082 0.090645716 -0.8791337 0.1030989 0.49605158 -0.020601358 -0.71095586 -0.33457005 0.55194825 0.3231623 0.29762924 -0.34289184 -0.19681707 0.30580205 0.43923894 0.47024322 -0.22841069 -0.5445267 0.33905965 -0.16562985 0.57134044 0.5642752 0.022181604 0.07128009 -0.81094015 -0.1592594 -0.26814327 0.24465398 -0.6024049 0.65071875 -0.21962988 -0.2967142 -0.32447138 -0.5393331 0.7197261 0.13540438 0.61296296 0.37048247 -0.13382795 0.55391717 0.25168622 0.234415 0.47645292 0.24960524 -0.46532544 0.22651984 0.3815374 0.1873221 0.287655 -0.36600658 -0.058114313 -0.14967036 -0.74319917 0.69364953 -0.16522117 -0.6315549 -0.30874476 -0.31515324 0.059331678 -0.33266696 0.034661997 -0.44300392 0.11120139 -0.25728992 -0.27374893 -0.55941916 -0.2537985 0.3008324 0.5324557 0.29272288 0.13833183 -0.2498508 0.017357625 0.5596004 -0.22278367 0.87688774 0.26842546 0.7209199 0.25945753 0.21581544 0.407497 0.24471195 -0.7696909 -0.069547184 0.81674725 0.31425655 0.75203085 -0.84326404 -0.016643696 0.36322778
238 -0.11660439 -0.010683159 -0.2774079 -0.37985015 0.2932713 0.0045510023 -0.16215834 -0.35696262 0.16440633 -0.50114405 -0.28188077 -0.37952158 0.33645332 -0.46086016 0.11622627 -0.16116941 0.38599277 0.2782933 0.15416892 -0.18837471 0.26511136 0.34956843 0.0421598 0.46901515 -0.016175652 -0.057942364 0.43348575 -0.036589142 -0.016441863 -0.32764032 -0.28887177 -0.16146246 0.06735237 0.17570962 0.2336015 0.7644301 0.31976256 -0.18469998 0.16697818 0.4479091 -0.45694745 -0.32981 0.33390033 0.19666496 -0.2214218 0.17905007 -0.0015538121 0.06126469 0.5053116 -0.08160495 -0.3194243 0.0012330998 -0.18948695 0.118390515 0.5206432 -0.37622213 -0.15405399 -0.2683356 0.20976973 0.65700614 0.115309425 0.4100438 -0.11066659 -0.02395422 0.6695851 0.42382336 -0.56611234 1.357122 -0.3850943 -0.10565185 -0.44809663 -0.5126466 -0.03791641 0.16797033 -0.45745265 -0.06711011 -0.26070356 0.20659892 0.3955647 0.09662868 0.015234861 0.10605943 0.18797986 0.26238248 -0.45756954 -0.33733857 0.026352052 -0.27177936 -0.35812172 -0.2527281 0.03658482 -0.36459884 -0.29345652 -0.3101639 -0.10515741 0.09191034 -0.008462257 -0.263961 0.27376795 -0.36739647 -0.29696685 -0.296854 0.13356917 -0.21677142 -0.5631689 0.19480579 0.067958064 -0.20765702 0.23051819 0.35641414 0.13001017 0.56786394 -0.44421762 -0.10916718 0.4370443 -0.106108 0.14997241 0.5288145 -0.2717565 0.17814958 -0.022811012 -0.25098813 0.32089177 -0.7500754 0.24828462 -0.73546004 -0.2413812 -0.20351435
735 0.15622112 -0.019755509 -0.06385878 0.036937464 0.034079097 -0.27887005 -0.24963564 -0.2579582 0.16108681 -0.2756875 -0.12615804 -0.4208395 0.028024344 -0.20289846 -0.09602309 0.22694571 0.32869044 -0.07791681 -0.23570256 -0.24096237 0.67458 0.32726985 -0.15927616 0.06252091 -0.00031482926 -0.19562562 -0.38072383 -0.09314772 0.17087346 -0.110844776 0.07106947 0.025034849 0.04048607 0.2086196 -0.20384969 0.059892595 0.49685842 -0.09137331 -0.2949992 0.14988612 -0.18686648 0.38901106 -0.13685529 0.19507061 -0.7241292 -0.1219132 -0.17929396 0.3553989 0.11440153 0.05563997 -0.58931315 -0.028723776 0.18008097 0.046314225 0.18993361 0.037320532 -0.19952348 -0.23599318 0.07340631 0.59599376 0.27256647 -0.44227564 0.01946912 0.16312505 0.08231052 0.10499695 -0.4076419 0.4950105 -0.042216096 -0.19305277 -0.2332999 -0.027410135 0.24036363 0.39569175 0.27587894 0.040797472 0.04193794 0.27989927 0.2319423 -0.0786781 0.2555446 0.29815084 0.17332764 -0.14155214 0.093218654 -0.71480143 -0.2060657 -0.37242055 -0.51679575 0.68140996 -0.44370574 0.2674189 -0.21464843 -0.25034156 -0.25630277 0.22066624 -0.08087131 -0.6436122 0.023947375 -0.0567817 0.051317997 -0.41087705 0.12774155 0.28122792 -0.34553167 -0.2787938 -0.030468855 -0.18802601 0.07588137 -0.06912668 0.34097338 0.4214613 -0.2547743 -0.31177023 -0.12802577 -0.19363041 0.0675334 0.051566023 -0.25332752 0.03317321 0.12887178 -0.156804 0.5012418 -0.00088618114 0.4143744 -0.45039886 0.2095178 0.011466956
657 -0.2086327 -0.37574142 -0.25403267 -0.2149368 -0.18127233 -0.0142704435 0.06740626 -0.34728622 0.034923755 -0.57747763 -0.38960776 -0.33571902 0.08707702 -0.20647271 0.085874856 0.21996783 0.1957346 0.31801918 -0.06529603 -0.16969208 0.37809244 0.16861442 0.19369018 0.27009195 -0.31209347 0.1035105 0.061192423 -0.07144578 0.097743794 -0.014231896 -0.47765616 -0.152515 -0.18840192 0.14157146 0.0016694831 0.5710409 0.39027593 -0.2482131 0.13022974 0.32248318 0.03158946 -0.11032255 0.23363139 -0.060791384 -0.15012433 -0.127679 -0.2509514 0.17872156 0.108419515 -0.07934662 -0.47990084 -0.17736763 0.1893669 -0.16938835 0.16075468 -0.21305439 -0.17423342 -0.18976231 0.29609457 0.36640546 -0.0106631555 -0.32272926 -0.18986352 -0.033103507 0.1367553 0.098780714 -0.1337224 0.8081135 -0.30169025 -0.113329165 -0.14395772 -0.7384165 0.28987822 0.2800728 -0.20546637 0.1226306 -0.30310193 0.2262956 0.2671956 -0.09242766 0.06616528 0.022545096 0.103673406 -0.15910183 -0.04358104 0.011544941 -0.23796049 -0.25764158 -0.07407725 -0.015400459 -0.18423922 -0.10873453 -0.14210771 -0.34819055 -0.24536788 0.34590247 0.0050955554 -0.30875793 0.29385936 -0.042947285 -0.21005087 -0.24841982 0.06645238 0.048068784 -0.20060925 -0.253023 -0.074491605 0.0733371 0.101227835 -0.06384949 0.079889886 0.31531197 -0.58160526 0.0749027 0.14017619 0.020734388 0.13323727 0.46484083 -0.38624817 0.09423015 -0.11655506 -0.38039735 0.37182915 -0.48210892 0.0887307 -0.28950253 0.18619636 -0.052857712
139 -0.023709757 -0.2884265 -0.4892837 0.012541464 -0.1653506 -0.18547346 0.13758314 -0.33927557 0.24895673 -0.32214117 -0.50195885 -0.35868007 -0.25641042 -0.14439194 -0.05373013 -0.017082125 0.5688242 0.24911897 -0.3591846 -0.10758459 -0.003830622 0.2661954 -0.27439818 -0.18492544 -0.056456342 -0.13081199 -0.34353316 0.03995385 0.12089814 0.09248444 -0.4305367 0.059032463 -0.16317563 0.009388549 -0.14466605 0.54605687 0.49496996 -0.5718043 -0.006536967 0.24418509 0.36184144 0.50417006 0.24625966 -0.11102763 -0.6329625 -0.24465919 -0.04226155 0.16793685 0.30304205 -0.5399377 -0.48788017 -0.033256143 0.46289703 -0.28264222 -0.10827871 -0.061041415 -0.3159798 0.38423866 0.3562159 0.26796314 0.047229588 -0.22379905 -0.31426984 -0.22414286 0.18517329 -0.038855918 -0.3552979 0.68529767 -0.38437867 -0.45290354 0.0068966607 -0.39274314 0.25662908 0.23586832 0.36074135 0.439593 -0.33242768 0.03443736 0.29663804 -0.00413928 0.27300465 0.35131475 -0.073526554 -0.5948519 -0.11508155 -0.055957567 -0.2711236 -0.36058202 0.28205517 0.15579498 -0.05755096 0.35722372 -0.31882557 -0.4878286 -0.041422307 0.06679975 0.053431492 -0.34047773 0.19543277 -0.018278815 -0.42344445 -0.17602177 0.24392338 -0.29418 0.019405019 -0.42029595 -0.3093371 -0.03880442 0.30507734 0.20351249 -0.10502525 -0.08417121 -0.5614627 0.22339843 0.3826762 0.1335195 0.37813488 0.5933108 -0.05803227 0.086241715 -0.046676904 -0.20332445 0.53059447 -0.15787372 0.20373145 -0.4273263 0.35657766 0.3013441
228 0.18429375 -0.24238019 -0.111463085 -0.07991542 0.038898855 -0.6458053 0.029015105 -0.09878369 -0.012143737 -0.35147247 0.08025052 -0.06948072 -0.2745187 0.22764206 0.38731414 -0.28137317 -0.005850799 -0.25358787 -0.3668856 -0.40785363 0.4212711 -0.34868923 0.25654292 0.39018482 0.16611615 -0.9741361 0.16314396 -0.083419606 0.3033289 0.15133242 -0.21365884 0.044853847 -0.2904899 -0.25234765 -0.30707932 0.36209056 -0.07314722 -0.33424124 0.14754188 0.36504152 -0.71693647 -0.11289006 0.23801087 0.1757799 -0.35889736 -0.06725513 0.5375435 -0.4648027 0.48680678 -0.30317235 -0.07678715 -0.13175786 -0.20066546 -0.46653864 -0.4495715 -0.4459346 0.23492023 -0.22477634 -0.016296918 0.42197794 0.84798235 -0.28906536 -0.21236166 0.09196923 -0.062801875 -0.082470536 -0.29250664 0.104224004 0.10159465 -0.035030875 -0.43287283 -0.49490857 -0.152468 0.13172118 0.100178376 -0.30784443 0.075802654 0.3906258 0.032587007 0.24722245 0.348433 0.20286945 -0.23487903 0.34234327 0.08539969 -0.20891786 0.06484134 -0.24173212 -0.016243 0.3730053 -0.31733328 0.1767534 -0.29057953 -0.47060716 -0.2601377 0.10150227 0.33350098 -0.3263284 0.27866337 -0.042767167 0.48105 0.17682555 0.31798694 0.23512962 -0.78664553 -0.3273818 0.23167789 0.7203215 -0.031827178 -0.044451218 -0.085122384 0.41821182 -0.26069582 -0.0028155204 0.20604865 0.03487235 -0.12137504 -0.043198682 0.16772081 -0.03367877 0.010839471 0.10021392 0.40569618 0.5813256 0.4946689 -0.45880866 -0.051856995 -0.44490013
250 0.077217765 -0.0032348174 -0.16490054 -0.034265373 0.20521814 -0.47646308 -0.022396963 -0.38819262 -0.35631043 -0.08325428 0.06802347 0.24394847 -0.2954441 0.35171264 0.119191945 -0.14681897 0.23586775 0.0063838875 -0.3589924 0.33421987 0.76998925 -0.5318025 0.0020888846 -0.189939 -0.040149227 -0.67838097 -0.12455767 -0.2707404 -0.0070714974 0.032617252 -0.35750687 0.38891676 -0.4964454 -0.26385456 -0.29103526 0.17664094 0.26417267 -0.29821816 0.30141243 0.1101596 -0.92370677 0.4983862 0.4309347 -0.19011436 -0.66235554 0.12888938 0.5548589 -0.35195893 -0.117318064 -0.22944333 0.24418327 0.13919698 -0.06927494 0.015682438 0.018716015 -0.4927105 0.14299715 -0.24631122 -0.5484091 0.3467219 0.35541925 -0.56165135 -0.7056759 0.20225112 0.4256039 0.24352169 -0.22480693 0.76377416 0.16088673 -0.3204995 -0.048932415 -0.6578932 0.1849589 -0.15256184 -0.08977015 0.26537552 0.27508625 0.5768272 0.44437793 0.22798492 0.2933097 -0.052261434 -0.28331614 -0.019318512 -0.18080178 -0.28777403 0.08134483 -0.34812504 0.03764297 0.72055566 -0.2590793 0.46946713 -0.52571553 -0.6180156 -0.19804789 -0.075455725 0.561374 -0.011422427 -0.17688307 0.06388563 -0.014364457 0.33738166 0.30663785 -0.17338051 -0.9776695 -0.07277533 0.021284869 0.13349536 -0.49063903 0.013862058 -0.12080545 0.4600413 -0.59232277 0.09722474 0.74624676 0.21115695 -0.2882468 0.08376492 0.7867959 0.30263707 0.07425459 -0.1141512 0.6780463 0.59987724 0.38377953 -1.4457285 -0.5892976 -0.2555517
286 0.10144452 -0.22802275 0.013571453 -0.15333489 0.07538207 -0.16428176 -0.034684602 -0.44639912 0.21813138 -0.17115965 -0.3657812 -0.38628253 0.2364104 -0.19513026 0.23887172 0.18382466 0.46548164 0.12955992 -0.050515193 -0.13897291 0.4096341 0.13756315 -0.14077696 0.18108492 0.14870358 -0.2072274 -0.42821363 -0.19737914 -0.07711846 -0.09064751 -0.041500885 -0.23481618 0.06958235 0.16001618 0.16330275 0.10117534 0.45846295 0.10166244 -0.22631207 0.002555203 -0.3834823 0.418348 -0.14933972 0.05990811 -0.5565595 -0.031890377 -0.08025069 0.5133287 0.1273163 0.09553377 -0.5252434 0.100858904 -0.027464705 -0.1298808 0.072751336 -0.075174175 -0.16382962 -0.28195575 0.045905128 0.691794 0.07217022 -0.5365021 0.0928937 -0.024566991 -0.04957513 0.12901653 -0.35669494 0.48215404 -0.095587716 0.087569535 -0.19722849 0.0297963 -0.15310462 0.26894718 0.19503804 0.016833572 0.06288916 0.42816544 0.39859295 -0.010758819 0.21841171 0.08221874 0.3145517 -0.032471772 0.06325402 -0.7858697 -0.4028502 -0.1466836 -0.44996792 0.63709366 -0.79825544 0.20940617 -0.26382887 -0.16520852 -0.2507887 0.087328635 -0.096219614 -0.65212536 -0.06378797 0.11246713 -0.09376007 -0.3436174 0.16781281 0.35485998 -0.5199178 -0.10975822 0.08897082 -0.2830325 0.0763995 0.17335318 0.36995366 0.59480476 -0.16293807 -0.15391138 -0.10477389 -0.21257752 0.36598343 0.1813479 -0.117740355 0.14416626 0.19017567 0.099889986 0.35087976 0.01866271 0.5950054 -0.51666534 0.23954917 0.03656638
245 0.30933276 -0.5308599 -0.71388125 0.06828369 0.86774015 -0.17824939 0.415246 0.08679568 -0.21205118 -0.057272 -0.73800623 -0.2073775 0.10682428 -0.13782814 0.044620097 -0.25843778 -0.11248801 -0.038018007 -0.31946608 -0.31434113 -0.25007096 0.29149297 -0.14337672 0.41311035 0.4311483 -0.20117907 0.20938295 -0.33584982 0.28052524 -0.2221978 0.1320701 0.0074805617 -0.18067619 0.10299279 0.09631883 0.2155887 0.048486393 -0.548313 0.68914664 -0.012211761 -0.029248955 -0.2614851 -0.32453904 0.042571295 -0.472782 -0.30893356 -0.06870841 0.03294416 0.7427691 -0.10417628 -0.6924963 0.50962716 0.11518414 0.13418666 0.37846875 -0.105817996 0.20076305 -0.071572244 -0.2627538 0.47383606 0.1214728 -0.7215351 -0.5347309 -0.7581588 0.3576833 0.33819893 -0.05470092 0.8653854 -0.10446285 0.12974639 -0.04452035 -0.40024182 0.61254567 -0.32615736 0.3103729 0.37435457 0.2609115 0.111736804 0.5501572 -0.2255856 0.62579656 0.027431957 -0.23051246 -0.0065397606 -0.18707576 -0.33134815 -0.044596527 -0.44070813 0.09553921 -0.1915362 -0.4129211 0.06248724 -0.43595126 -0.25359705 -0.17511027 0.25820434 -0.0031826696 -0.19028075 -0.17369556 0.18793696 -0.5454874 0.051841337 0.72692686 -0.5521497 -0.43558002 0.15922903 -0.6379052 -0.37569618 0.14455624 -0.19289209 -0.3875453 0.0798956 -0.36487255 0.3596975 0.16905174 0.116131075 -0.24448493 0.9047417 -0.35275406 0.28953657 0.13786803 -0.0063200314 0.37298563 -0.056700714 0.7465916 -1.1427765 -0.76578593 -0.23504783
25 -0.29624537 -0.04468891 -0.22337033 -0.22118245 -0.0025086969 -0.466507 0.11996324 -0.7522532 0.17013055 -0.6642746 -0.468691 -0.37783825 0.011963326 0.17124335 -0.175688 -0.41020283 0.21170196 0.14111286 0.1321776 0.23630267 0.11933846 0.25946155 0.39286375 0.011010843 0.35791564 -0.6891702 -0.007602586 -0.06543499 -0.36592016 0.056226555 -0.013585831 0.595539 -0.11965952 -0.026833225 -0.16554327 0.37955564 0.16253373 -0.067628674 0.2684955 0.028504023 -0.57444775 0.571664 0.28645816 0.01090813 -0.3040964 0.38276383 -0.120466754 0.0114901215 0.18779519 -0.192457 -0.30592912 0.5850846 0.3667466 0.19626433 -0.3196314 -0.7658781 0.2701102 -0.73669887 -0.3432147 0.4765798 -0.14769281 0.3576794 -0.047181763 -0.13590448 0.06951866 -0.05060727 -0.048036728 0.46004304 -0.6704144 0.25862694 -0.8826179 -0.6297371 -0.046673056 -0.04556336 -0.1718331 -0.05597289 -0.73676854 0.6504418 0.065655164 0.16897948 0.15961044 -0.13823815 -0.01994569 -0.20314167 -0.5214911 -0.033290703 -0.43317455 -0.38418642 -0.5302233 0.208709 -0.81972826 -0.09857046 -0.19661056 -0.6452314 -0.6956993 0.011303753 -0.19020851 -0.2471999 -0.005602196 0.2131504 -0.19360642 0.23789802 0.03767822 -0.07838712 -0.69844234 -0.41267124 0.18850282 -0.10866804 0.06731022 -0.098945744 -0.11472408 0.021645136 0.11022728 0.22325005 -0.06079845 -0.23187011 0.22637227 0.3865826 -0.057657488 -0.1415508 0.17537013 0.40139908 0.36308712 0.017957188 0.036791224 -0.45292953 -0.437197 0.059142962
750 -0.32078192 -0.088323355 -0.26511958 -0.10202194 -0.20283216 -0.54452384 0.25911996 -0.5438706 0.011061762 -0.84279317 -0.39927125 -0.37462452 -0.2944592 0.28409797 -0.14463533 -0.18356875 0.2622781 0.27011585 -0.07407986 0.36133838 0.13129456 0.033154294 0.50370055 -0.07579373 0.29404435 -0.6686246 -0.18318567 -0.19778661 -0.3922985 0.15712619 -0.19621882 0.5724191 -0.29689562 0.052630093 -0.34403774 0.5663524 0.2541251 -0.21480022 0.29888552 0.025225928 -0.4048251 0.5595845 0.528512 -0.021824796 -0.34893683 0.20561634 -0.4297995 0.042495556 -0.051448397 -0.23904327 -0.12225334 0.5863454 0.43054846 -0.017480962 -0.42773995 -0.82093936 0.22254965 -0.61406475 -0.40078983 0.3053803 -0.15675882 0.20073865 -0.12756811 -0.17640981 0.04434869 -0.044398885 -0.053975552 0.47042143 -0.6074098 0.29663852 -0.9119801 -0.69346565 0.03426108 -0.05393344 -0.14855039 0.024562525 -0.736256 0.62911516 0.03153629 0.13070631 0.24801035 -0.09253172 -0.020499859 -0.29579017 -0.77734923 0.2804963 -0.4961847 -0.501111 -0.16832584 0.48672467 -0.71103084 0.18057051 -0.2634402 -0.7305384 -0.7910075 -0.06674688 -0.15281332 -0.32892874 0.14911602 0.24052285 -0.1518239 0.22647843 0.07504643 -0.06332719 -0.525053 -0.45037407 -0.027532361 0.039601374 0.007080688 -0.14422166 -0.08408322 0.0605221 -0.040977042 0.34610513 0.014574741 -0.2754966 0.1887955 0.5256325 0.11707148 0.015895484 0.29812005 0.20752007 0.57501185 0.16327836 0.080618314 -0.7001694 -0.53686386 0.25293717
90 0.027803054 -0.09674088 -0.034314048 -0.53325725 0.2156372 -0.3219944 -0.20788918 -0.53211385 0.31617048 -0.44334242 -0.21696612 -0.45301083 -0.18823507 -0.25465456 0.060256083 -0.21910971 0.12407993 -0.34266633 -0.6297605 0.021854468 0.04603056 0.36069414 -0.41716367 0.05107285 0.068893395 -0.497156 -0.4898865 0.47491294 0.07608109 -0.231453 -0.28305557 0.025953414 -0.20505734 0.17352524 0.09434863 0.48193562 0.63671017 -0.07448664 -0.06270232 0.110600546 -0.14725761 0.38158372 0.21646212 0.099004455 -0.48719484 0.0014015764 0.6087113 0.4531285 -0.076648325 0.010735912 -0.5488548 -0.028925758 0.27911234 -0.07208719 0.29754302 -0.13272901 -0.43464425 0.3983332 0.18300147 0.37282494 0.30337656 -0.08636696 -0.29579654 0.00085378246 0.05558855 0.058652036 -0.8859947 0.5796228 -0.22248791 -0.087215796 0.044434372 -0.26620197 -0.027003877 0.15725648 0.06622191 -0.08720642 -0.38096744 0.088668615 -0.5152373 0.32354048 -0.06503635 0.55088145 0.23893395 -0.112758175 -0.39955568 -0.53917557 -0.46932048 -0.31576398 -0.035257705 0.36154196 0.07039025 0.19292364 -0.30381262 -0.5677844 0.11990168 0.1072953 -0.5272646 -0.21511464 -0.346822 -0.23160474 -0.111635156 -0.36543208 -5.7199577e-06 -0.4135981 -0.27288735 0.20917068 0.15541852 -0.36652002 -0.10593007 -0.1490998 -0.06421201 0.045155376 -0.21860202 0.3007703 0.5996742 -0.08211089 0.16968517 0.2714606 -0.06582975 -0.20383798 -0.18822007 -0.0050894315 0.5928269 0.44732922 0.31286025 -0.439146 0.3115842 -0.105527535
239 0.41713443 -0.23654708 -0.22379947 -0.2400905 -0.2008675 -1.0547572 0.37682694 -0.654667 0.028794449 -0.5663942 -0.7473729 -0.0014825996 -0.18132012 -0.33870724 0.93821424 -0.31011894 0.54829913 0.08512792 -0.2805134 -0.03134611 -0.17010641 -0.06472288 -0.23891601 0.2694828 0.095204905 -0.67198807 -0.64428383 -0.4222351 0.40668896 -0.9947332 -0.5855397 0.26063848 0.26382712 -0.82123244 0.20082986 -0.057789642 -0.056574784 -0.4626867 0.087604485 0.25216317 -0.68655586 0.3906097 -0.18831326 0.28674424 -0.04306404 -0.071796104 0.12788327 -0.022889074 -0.06590186 -0.20196046 0.03195319 0.13573238 -0.0041396054 -0.026653448 -0.22437511 0.03692989 -0.40221253 -0.1373328 -0.3077408 -0.21501097 -0.03753829 0.2037746 -0.11639908 -0.41797853 0.6159397 0.49184424 0.12664786 0.3474302 -0.060886707 0.3098212 -0.29495803 -0.24202563 0.15055086 0.2767901 0.29140306 -0.19136935 -0.7257946 0.40976456 -0.013235799 -0.009824607 0.38736507 0.2800723 -0.5115194 -0.008696023 0.033165637 -0.22123833 -0.3738451 -0.19565473 0.05842537 -0.21551166 -0.4543765 0.2871794 -0.24203771 -0.9482555 0.054200236 0.0147982 0.20325589 -0.07183603 0.6666737 0.48742598 -0.14957313 -0.024911579 0.17420816 -0.40833762 -1.0815498 -0.36076897 0.43203607 -0.26452678 0.07042373 -0.23509271 0.1601566 0.24386026 -0.58492976 0.41882828 0.43259197 0.6366657 -0.27627245 0.54987323 -0.17220704 -0.67433757 0.011223669 0.27306214 0.58422446 -0.072900645 0.7208305 -1.794034 -0.17052396 0.49649093
325 -0.30705485 -0.16949044 -0.24896227 -0.18818793 0.24007861 -0.3007754 0.40427342 -0.53300095 -0.29471248 -0.5887152 -0.5892332 -0.5491797 0.11566029 0.094549276 0.41149557 -0.01178642 -0.04641474 -0.22254905 -0.018042916 0.027484084 -0.27004927 0.34706613 0.56914175 -0.01751116 -0.34252828 -0.66320103 -0.39015338 -0.07994778 0.55531555 -0.33143058 -0.4401433 0.30361086 0.53599715 -0.39359108 0.2185994 0.63400495 0.30441397 -0.73420566 0.645566 0.49826938 -0.03226905 0.21428761 0.67702466 0.051897317 -1.1487871 0.030042436 -0.34015512 0.14791839 0.2845406 0.14353466 -0.3270572 0.049579937 -0.47798362 0.3750709 0.6641803 -0.7604802 -0.29686612 0.13760993 -0.23783551 0.21739194 -0.26688927 -0.31798092 -0.42421654 0.3695903 -0.1175528 0.5136214 -0.6272436 0.841319 -0.42001313 0.1487437 -0.4259414 -1.0243464 -0.13180877 -0.58990824 0.13651928 -0.18454766 -0.107719235 0.06010931 0.41584414 -0.17553994 0.5615193 -0.08993618 -0.4381251 0.3644168 -0.20088358 -0.178934 -0.74710643 0.06435607 0.27934185 0.833336 -0.129749 0.7751105 -0.2279033 -1.18462 0.057415307 -0.037260372 -0.13914688 -0.08201692 0.16608869 0.09916876 -0.41487995 0.2116653 -0.080122896 -1.105169 -0.45928934 0.29852387 0.13271324 0.27151352 -0.29664811 -0.020477211 -0.28952166 0.3877771 -0.16701521 0.5288064 0.6703893 0.068807065 -0.39433008 0.43735278 0.44713482 0.20237203 -0.15562971 0.35051185 0.2924402 0.8501805 0.42281896 -0.6807708 -0.1932426 -0.17554735
328 0.26193565 0.37486288 -0.3897995 -0.22692294 0.46817344 0.122808665 -0.096011296 -0.5198727 -0.4436002 -0.5010541 -0.4052995 0.10809666 -0.5604413 -0.39608276 0.5032691 0.039614227 0.28666517 -0.07647508 -0.6649774 -0.018848792 0.31902274 0.54641527 0.53935295 -0.16336694 -0.13175696 -0.47276863 -0.30230692 0.0077741602 0.15180165 -0.10425135 -0.29972067 0.5731812 0.5040323 -0.016253177 -0.19763659 0.5479372 0.42933765 -0.4073062 0.6161311 0.8023765 -0.10492768 -0.20024343 -0.09543561 0.2721431 -0.4819696 -0.06581483 0.050926253 0.2149569 -0.27881172 0.10384124 -0.07499938 0.17986883 -0.44251168 0.27846235 0.62524927 -0.1848038 -0.17846335 0.010248918 -0.17182465 0.69723696 0.1850905 -0.11968934 -0.7563587 -0.57534826 0.5460795 -0.026186591 -0.6581294 0.73871654 -0.5762246 0.5262929 0.11337868 -0.37430456 1.0784956 -1.1009903 0.69240296 0.42301813 -0.5427757 0.5146234 0.56287044 0.18669967 -0.1305411 0.47283015 0.27703813 -0.10048084 -0.16490327 0.122100204 0.053005204 -1.2264009 0.01304088 0.40838563 -0.101049885 0.18475917 -0.45434475 -0.49283987 -0.3963446 -0.2886585 0.10779492 -0.42392492 0.2281383 -0.5341443 -0.57673556 -0.21583684 -0.31213406 -0.26200882 -0.28467467 0.55530906 -0.5519284 -0.26159242 0.11856853 0.79613084 0.055086177 0.40187356 0.2318509 0.5307354 -0.1402849 0.22975747 -0.024199337 1.054884 0.67908156 0.15449479 0.25071582 0.4546563 0.40465164 0.7818888 0.58044547 -0.99304473 -0.40423134 -0.116226986
312 0.24483472 -0.0029866993 -0.3200529 0.12328777 0.85772777 -0.38680637 -0.31649315 -0.75744426 -0.031745754 -1.1743251 -0.24965718 0.008489738 -0.6628762 -0.7551163 0.57332915 0.23500574 0.1689267 0.7278396 -0.65995157 -0.129931 -0.44288966 0.54662573 -0.22785138 0.45271173 -0.112318456 -0.62260085 -0.8862125 0.109729394 -0.14979063 -0.529902 -0.52240825 -0.17748633 0.033963066 0.02393605 0.41139883 0.6821873 0.68899816 -0.75677556 0.92394537 -0.26789466 0.19567293 0.5629916 -0.0667593 -0.23483846 -0.5702374 -0.038976777 0.19692974 0.6081427 0.43578324 0.23834011 -0.5473158 0.38977328 -0.16146295 0.20317481 0.18308917 0.062787786 -0.39277515 0.083872706 0.77664024 -0.14940144 0.005105925 0.051870067 0.42259452 -0.14949867 -0.026691042 0.14997785 -0.065587275 0.9246646 0.025550978 0.40078253 0.04391702 -0.060622245 0.14036104 -0.10851902 0.7802523 -0.009238591 -0.97204745 0.15012482 0.40577033 -0.37047592 -0.11682247 0.557429 -0.32436913 0.09683989 0.118756406 -0.5463608 -0.45735958 -0.56741714 -0.67392236 -0.1899224 -0.7801983 0.7023754 0.1129151 -0.5912933 -0.48521397 -0.103838235 -0.17224976 -0.26076397 -0.04538352 -0.21562473 -0.64505345 0.051201247 0.5520962 -0.7985848 -0.4602662 0.19148614 0.15879859 -0.32365313 0.7528035 0.07329734 0.018412989 0.27039847 0.058434993 0.6334713 -0.3341778 0.65570796 -0.00071036705 0.99972 -0.7051934 0.020187043 -0.5104323 0.7272164 0.7797715 -0.31227118 0.83382136 -0.7070364 -0.14905328 0.21955892
72 -0.19418128 -0.19431244 -0.25319856 -0.25170493 0.3543294 0.120949954 0.33314776 -0.6777155 -0.13540642 -0.9261107 -0.47787905 0.0018310426 -0.030080255 -0.051404975 0.06798157 0.40605938 -0.3342584 0.1655522 -0.15215656 -0.6824723 0.3208856 -0.34455568 0.021880196 0.46492958 0.15330099 -0.25838032 0.0091200415 0.48904204 0.32030284 -0.14170897 -0.15828018 -0.0614606 -0.15372266 -0.13054839 0.34343827 0.31203693 0.23689964 -0.23723882 -0.05221706 0.2149987 -0.52384835 0.37105855 0.6049967 -0.09102053 -0.38443893 -0.21353842 -0.2030248 -0.08323209 0.52676773 -0.6887157 -0.122816116 0.016951878 0.063952304 0.017551119 -0.107185125 0.031241532 -0.11909952 -0.2137019 0.33149606 -0.040040296 0.42654678 -0.23722239 -0.12879583 -0.081267595 0.14124507 -0.2374911 -0.22822873 0.57769865 -0.5374578 -0.3347773 -0.44827038 -0.9468328 -0.028847119 0.16482313 0.4882945 0.07409648 -0.32314864 0.41366088 0.56914645 -0.12652141 0.43172795 0.6753933 -0.027577756 0.44653994 -0.28488547 -0.26071507 -0.36046228 -0.3410748 0.0067498097 -0.42105713 0.17663552 0.064407304 -0.3241855 -0.44126832 -0.10373965 0.15993714 0.030546494 -0.090906434 0.3670122 0.058995035 -0.011748593 0.12478353 -0.37886354 0.30580708 -0.5445525 -0.16844867 0.17750426 0.011843297 -0.011298452 -0.18258953 0.4754147 0.4036104 -0.31350288 -0.17989422 0.36681077 0.008307103 -0.0460354 0.12347984 0.17416422 0.07200195 -0.15108913 -0.14069234 0.46247447 0.29701146 0.3314123 -0.29542965 0.20469354 -0.31608355
478 0.030062722 -0.25146252 -0.21919967 -0.11573708 -0.07471582 -0.37934554 -0.024061097 -0.24491361 0.16550986 -0.40047568 -0.3143711 -0.35972875 -0.18103682 -0.34346145 0.33719456 -0.013649394 0.459248 -0.30780724 -0.5363454 0.093157694 -0.18262346 0.30240208 -0.61683464 0.010699115 0.023180878 -0.3719354 -0.30571398 -0.14053184 0.3386604 -0.1806626 -0.5141677 0.086943634 -0.08502335 0.21036598 -0.05784315 0.57386833 0.6669296 0.02403077 -0.32675993 0.07729431 0.0049048713 0.42555466 -0.118859805 0.019824758 -0.26953745 -0.63270545 0.48952982 0.49178365 0.19041054 -0.48595542 -0.671023 0.08900433 0.26596317 -0.021926438 0.50176084 -0.012477728 -0.28374746 0.38640648 -0.0066791135 0.3949655 0.3155415 -0.12209793 -0.12690388 -0.29650748 -0.056387838 0.04402509 -0.39805245 0.82529724 -0.2395234 -0.12236415 -0.17399698 -0.35568085 0.037277725 0.10588223 0.016059335 0.3270679 -0.20818864 0.35503018 -0.18550594 -0.08901142 0.10587633 0.052225113 0.4493632 -0.026174849 -0.14798114 -0.30824196 -0.029314352 -0.068663046 0.27258232 0.21483535 -0.15351164 -0.050018016 -0.21507804 -0.5154671 0.14802058 0.029318176 -0.20034556 -0.46696237 -0.20981674 -0.22739658 0.018906051 -0.38948786 0.31368944 0.13082516 -0.4393278 -0.0041048634 0.018721055 -0.06231711 -0.12636267 0.056543626 -0.20329517 0.16584212 -0.294891 0.12294765 0.35830235 -0.08631536 0.09320155 0.1276119 0.016682135 -0.24401192 0.0076491027 0.03681642 0.45652843 0.00060103677 0.51786095 -0.42430836 0.4211422 -0.03290554
24 0.4025601 0.23072352 -0.046398923 0.45874465 0.23833965 -0.47047877 -0.17604658 -0.19653422 -0.30534673 -0.7443419 0.057045452 -0.5011918 0.029215468 -0.5066181 0.14721045 0.13445471 0.6332808 -0.3176796 -0.88630354 -0.67122304 0.10797725 0.054463513 0.2527011 -0.24123806 0.33772963 -0.41483632 -0.42290336 -0.10011961 -0.1026549 -0.29172435 -0.024286212 0.26811543 -0.26005653 -0.014755994 -0.12411442 0.4040139 1.0019947 -0.32773674 0.35689932 0.003914326 -0.3204867 0.36569485 0.064865954 0.72800756 -0.91863513 0.32673734 -0.404811 0.025026068 0.031545356 -0.10870597 0.22059768 0.21136183 -0.7512065 0.5344382 0.3176382 -0.11573142 -0.0141170835 -0.05224214 -0.054858886 0.008157559 0.38398093 -0.4576787 -0.17943278 -0.27066952 0.39645553 0.47578493 -0.28267533 0.37073362 -0.047682468 0.28151447 -0.16616787 -0.100843646 0.4139957 -0.10652117 0.53895515 0.24189606 -0.28677642 -0.3625941 0.16596605 0.019598978 0.32060653 0.25107992 -0.047516346 0.25173753 -0.7135655 -0.12504487 -0.3061201 -0.5066682 -0.55915934 0.70712435 -0.69390094 0.579619 -0.008446769 -0.70318264 -0.016572412 0.08026766 -0.15847105 -0.63944995 0.14061733 0.02362208 0.002915223 0.3378378 0.7214858 0.03173398 -1.3050693 0.1565843 -0.60589397 0.20455971 0.22572306 -0.09192126 -0.12097083 0.59369797 -0.013283653 0.013333561 0.08684494 0.073091224 -0.31688848 -0.042265978 0.20443556 -0.03808514 0.24844061 -0.07208895 0.84523267 0.27511185 0.79766196 -0.46006358 -0.44649813 -0.022511031
741 0.40029904 -0.0263689 -0.2504698 -0.24370606 -0.09676385 0.060446687 -0.26172823 -0.37471735 -0.39102963 -0.46678892 0.043154284 -0.32418072 -0.30499315 -0.20356761 0.73773265 -0.42145666 0.38389584 0.08686768 -0.39902708 0.074705146 0.6777546 -0.2582988 0.109139994 0.5000329 0.1449953 -0.40228865 0.4274563 0.33261943 0.39196372 -0.05172864 -0.2070825 -0.47016403 0.3133408 -0.23742862 -0.4394143 0.5235041 0.38613832 -0.4417089 0.09665541 0.024462849 -0.24064204 0.027131462 0.5412989 -0.04602741 -0.19407988 -0.23819688 -0.022929136 0.19904739 0.31130758 0.15614869 0.06822155 -0.18342833 -0.035135753 0.113334 -0.27261868 -0.3114535 -0.0617767 -0.19955084 0.3582044 0.12460414 0.37014088 -0.34057486 0.16110925 -0.57694036 -0.2160098 0.3024593 -0.424883 0.8633416 -0.1981889 0.0022348466 -0.6110632 -0.44934753 0.07349753 -0.06080824 -0.15483288 -0.29988134 -0.21212563 0.26832375 0.15897833 0.2567203 0.15751489 -0.14051183 -0.20745346 0.063359104 -0.3979702 -0.48177338 -0.11339216 -0.88424593 0.13538839 0.022942841 -0.09181338 -0.15173753 0.06666208 -0.3628192 -0.28422877 -0.18456383 0.37006822 -0.28807837 0.28070408 0.06850644 -0.55931544 -0.2068382 -0.12476654 -0.100971796 -0.60789186 -0.12227078 0.3172882 -0.07994382 -0.07668891 -0.36661702 0.17054634 0.0371892 -0.5530028 -0.19721985 0.044381503 -0.052889615 0.09880412 0.28671414 0.058421057 0.3999692 -0.04768499 0.2080491 0.19012105 0.12044666 0.24234511 -0.47422147 0.22763124 -0.1967421
618 0.38552845 0.0028405776 -0.31197196 -0.15931542 0.17674379 0.11376887 -0.14939724 -0.19370688 -0.26472205 -0.5472604 -0.021251656 -0.033973627 -0.3977659 -0.18437561 0.7881717 -0.24549028 0.1197559 -0.012609597 -0.37479404 -0.15283784 0.3588395 -0.21840069 -0.01440792 0.65982497 0.11268385 -0.5982557 0.2736682 0.40426078 0.6575306 0.0768001 -0.15760739 -0.1870255 0.35073113 -0.093134515 -0.18125317 0.36866212 0.43861586 -0.51475286 -0.11076137 -0.0038653952 -0.3257813 0.12533948 0.4433489 -0.026519997 -0.06915955 -0.35030976 0.017990952 0.16052404 0.5221526 0.037972227 -0.031537555 -0.09106216 -0.03002177 0.09070234 -0.40498948 -0.33879998 -0.048691195 -0.017843246 0.2699657 -0.06618316 0.38162994 -0.27363062 0.031271704 -0.43724284 -0.3036401 0.29741314 -0.48146608 0.78390527 -0.14687699 -0.2005797 -0.51629126 -0.26738974 -0.084347084 -0.037168633 0.050378554 -0.400158 -0.004237565 0.4798413 0.14063092 0.22960973 0.19567685 0.113464504 -0.11210448 0.17612475 -0.2747134 -0.3886335 -0.19435263 -0.7406487 0.1514117 -0.04759445 -0.13104746 -0.068178326 0.06749058 -0.17958692 -0.3242933 -0.16393295 0.10461778 -0.104183115 0.3442922 -0.06066947 -0.42864904 -0.3316524 -0.14962216 -0.095725246 -0.6586608 -0.09732479 0.34932995 0.055861607 -0.2237715 -0.3548013 0.013665892 0.30495444 -0.6139465 -0.20398287 -0.18612616 -0.043825194 0.18520229 0.3445708 0.11723873 0.23535544 -0.05630174 0.23942311 0.28688464 0.14889933 0.34482035 -0.24153075 0.40490806 -0.2858023
610 0.17897956 -0.019724526 -0.09572449 -0.14469284 0.3075836 -0.5829928 0.06035491 -0.47343412 -0.37215513 -0.17341805 0.051440094 0.21730734 -0.21402282 0.18111132 0.119251885 -0.13460296 -0.16627961 -0.23044382 -0.47458202 -0.09480481 0.6843299 -0.4183566 0.05852404 0.31858107 0.079880506 -0.743759 0.11389698 -0.028107047 0.23644146 0.21737179 -0.18310186 0.30506283 -0.5344903 -0.38944724 -0.34173968 -0.05236471 0.10701137 -0.15751815 0.119275674 0.2891923 -1.024167 0.16898014 0.31326163 0.16253142 -0.53640956 -0.12030446 0.65459263 -0.4403534 0.20926675 -0.46249115 0.019444888 0.15491483 -0.09399796 -0.21417335 -0.036269855 -0.18933947 0.19307813 -0.35476 -0.49323454 0.5906368 0.7140863 -0.5140013 -0.65560246 0.19475816 0.519724 0.15075333 -0.24867015 0.2236171 0.21330613 -0.088236935 -0.34843102 -0.73533964 0.034425084 0.085477166 -0.034476206 0.06365742 0.30559593 0.59811467 0.368833 0.3186749 0.49122328 -0.035770517 -0.09531568 0.4319764 -0.17193963 -0.35199112 0.12154425 -0.4078979 -0.046419375 0.7740017 -0.15318456 0.30622932 -0.5428026 -0.41534445 -0.2732479 -0.05815643 0.5379955 -0.35165268 0.11713519 -0.05152377 0.1620561 0.27339694 0.27891278 0.27642992 -0.8245961 -0.2556521 0.25418738 0.5262745 -0.4052397 0.16769388 -0.13369323 0.6729331 -0.403484 0.07442555 0.40184236 0.005294147 -0.0067758732 0.0057148254 0.50149596 0.14396882 0.09272621 0.056451567 0.42298797 0.55078614 0.726612 -0.9389309 -0.07385218 -0.41386718
477 0.31469586 0.28516543 -0.14730248 0.5579827 0.13175899 -0.33600026 -0.2991794 -0.18768463 -0.30358937 -0.81259733 0.111665905 -0.3804125 -0.0055647204 -0.43137476 0.14109662 0.3199361 0.42063403 -0.2538406 -0.7044875 -0.6920549 0.25359988 -0.09456125 0.16163638 -0.095737725 0.22270837 -0.3159768 -0.2555551 0.009652657 0.017758645 -0.31748006 0.0697761 0.18995751 -0.0787116 0.0108044855 -0.20437579 0.31379497 0.77662927 -0.33777037 0.28621942 0.098339535 -0.23769122 0.36227673 0.12200922 0.64980876 -0.90799975 0.24122505 -0.5131534 -0.006032836 0.098807596 -0.16982737 0.073201224 0.034846753 -0.56987435 0.43044516 0.35881263 -0.059490472 -0.12643348 -0.016374279 0.042010214 -0.05328665 0.4833482 -0.53607297 -0.06646765 -0.11074407 0.35816976 0.3424189 -0.27326664 0.3246936 0.1415088 0.06624186 -0.38947836 -0.21520075 0.47478908 -0.05478185 0.5083746 0.13279232 -0.2765579 -0.25420633 0.2989163 -0.069792524 0.17126629 0.38064972 0.16742037 0.26720807 -0.5556194 -0.26649323 -0.21539526 -0.4366003 -0.5907835 0.4518309 -0.4926123 0.5210837 0.023273168 -0.50637233 -0.07023491 0.09650306 -0.14147209 -0.5811956 0.16114609 0.030600226 0.1161309 0.19048268 0.5085764 0.21305189 -1.1774426 0.08698293 -0.39056337 0.19366789 0.2097739 -0.30853534 0.0053643426 0.6045744 -0.069687665 -0.10481632 0.094157524 0.006745301 -0.39442915 -0.05532728 0.037051044 -0.16432777 0.25937065 -0.07134889 0.7147915 0.24245295 0.67943263 -0.34519467 -0.35709253 -0.10900566
155 0.0734769 0.086350404 -0.4248416 0.05526021 0.12241322 -0.7348222 0.06609744 -0.59239274 -0.5151945 -0.7186935 -0.2372113 -0.11367551 0.12807089 -0.24327643 0.55576855 -0.62520605 -0.22788937 0.22884469 -0.41814303 -0.6833561 -0.36419952 0.04717556 0.49572068 0.38447112 0.1601118 -0.8972181 0.078497045 0.6597855 0.037972067 0.08319801 -0.05883456 0.62241966 0.3351672 -0.046025034 -0.13335162 0.6687713 0.1400481 -1.1029886 0.8234826 -0.1018672 -0.7440228 0.0067181205 0.40389344 -0.22456317 -0.15364544 -0.037664898 0.24584934 -0.5077298 0.7699882 -0.18095204 -0.09711899 -0.28890914 -0.23147689 0.3301048 -0.35131747 -0.35215423 0.1427907 0.16746975 0.080882445 0.25581542 0.6087147 0.16373046 -0.0558712 -0.33720234 0.06635872 0.068380855 -0.21447684 0.3271914 0.1806678 0.17877546 -0.2218912 -0.5273404 0.1959723 -0.47811568 0.08833051 0.2819557 -0.61705977 0.1350821 -0.012909063 0.4439377 0.1317021 0.26750124 -0.118401214 0.56934804 -0.063944235 0.19780132 -0.11679354 -0.50455594 -0.37128323 0.20204988 -0.1705615 0.62940127 -0.2766106 -0.46114564 -0.3656121 -0.018684836 0.42038965 -0.22967269 0.16576006 -0.104270875 0.6227251 0.49767813 0.37864718 -0.609508 -0.5399733 -0.20286345 0.2554855 0.25344262 0.31349352 0.10543059 -0.7396328 -0.3551151 -0.3729398 0.29087818 0.1648125 0.6059583 -0.39132938 0.72793746 0.030519707 -0.23801939 0.17567784 0.59172887 0.5333646 0.71860266 0.5045745 -0.39155164 -0.4175168 -0.37488124
536 0.23598227 -0.60025305 -0.8868915 0.50234425 0.5250111 -0.08002316 0.5034293 0.17096424 -0.22543938 -0.50894177 -0.7688442 -0.3385607 -0.027438799 -0.437496 0.25071284 -0.16815619 0.5082134 -0.084309824 -0.48721504 0.075362675 -0.26612034 0.32365945 -0.116665 0.09901731 0.3917507 -0.6623378 0.22343934 -0.36168832 0.1143359 -0.09200214 -0.2178252 0.33406845 0.016224975 -0.18532668 0.19777162 0.109487906 0.29335213 -0.59870356 0.13563521 0.16055714 -0.07077164 -0.17381749 0.013858093 -0.09985999 -0.36674738 -0.07978468 0.13347705 0.12001531 0.6438262 -0.2224874 -0.17275718 0.57552695 -0.01505637 -0.14167686 0.4421965 -0.096757606 -0.073536046 -0.14156452 -0.28605953 0.040098354 0.2595471 -0.30676 -0.39895537 -0.79024875 0.80989915 0.4099366 0.010172478 0.38400057 -0.41846335 0.556654 -0.30354494 -0.7156223 0.3325765 -0.13809034 0.42864707 0.34373754 0.25186613 0.7049115 0.39897954 0.010254245 0.29433405 -0.014622758 -0.08648388 0.23338996 -0.12610044 0.03509814 -0.3256559 -0.3294862 0.35336637 -0.03483105 -0.16388169 -0.5632701 -0.55820227 -0.20329513 0.288304 0.060589146 0.21326292 -0.06916213 0.06193102 0.033621956 -0.5060989 0.3181693 0.690467 -0.22310938 -0.7623806 -0.10571511 -0.5109266 -0.027346514 -0.008793847 -0.22891742 -0.37512282 0.011441641 -0.28464165 -0.21440065 0.27525142 0.26445276 -0.29364413 0.8925968 0.18892083 0.33443445 0.21451132 0.30976117 0.18646422 0.19195725 0.76856935 -1.0284555 -0.6362469 -0.3475519
676 -0.007847212 0.004209706 -0.230361 0.0484948 -0.00310293 -0.46671593 -0.3096691 -0.46054804 0.365798 -0.71766514 -0.27604583 -0.23731992 -0.017938405 -0.26135913 0.07571199 -0.32709408 0.31681708 -0.10046171 -0.3057923 -0.035371456 -0.046471946 0.575672 -0.34707 -0.04627805 0.23513637 -0.51923066 -0.2090152 0.2503594 0.14917566 -0.17369224 -0.07288236 0.5301051 0.18817209 0.17738503 -0.028283665 0.39147726 0.5348733 -0.2319516 -0.24503323 0.13200791 -0.08721242 0.55590326 0.06617734 0.090964966 -0.44907817 -0.14453998 0.54932404 0.11627027 0.39847758 -0.28117284 -0.59861284 0.09277513 0.4424324 0.097229116 0.06593975 -0.15574077 -0.12877104 0.14137697 -0.046152417 0.25002924 0.20504506 0.29409555 -0.008368801 -0.065100595 0.0042956495 0.07581266 -0.46995008 0.3157319 -0.49874005 -0.115034856 -0.36476207 -0.018313061 -0.04153854 0.10604749 0.14007431 0.056620285 -0.4183508 0.3648709 -0.35408112 0.34682086 -0.042140983 0.31279325 0.21127604 0.029495081 -0.008810911 -0.31132278 -0.31015283 -0.24428599 -0.16489637 0.30120972 -0.51294136 -0.108655065 -0.08970416 -0.43194616 -0.07506818 0.066701725 -0.48055008 -0.22690992 -0.2096375 -0.12694867 -0.10363671 -0.25638208 0.2353511 -0.12521444 -0.42240363 -0.25577265 0.20813183 -0.031484142 0.13423377 -0.009189144 -0.2289937 -0.15722224 -0.21112068 0.1249335 0.11727393 0.11079859 0.39886189 -0.014841261 -0.25678253 -0.5523406 -0.13721728 0.28483117 0.3974 0.26381907 0.04385424 -0.020740304 0.19700105 -0.1450163
521 -0.17474152 -0.4017424 -0.41751793 0.10987367 -0.23151244 -0.20206669 0.22106618 -0.42679733 -0.04420503 -0.3951074 -0.16422236 -0.27019182 -0.09137184 -0.04599659 0.074133605 0.10124298 0.33084977 0.60341257 -0.26124752 -0.03770846 0.319157 0.049906608 0.15610473 0.34153494 -0.42689505 0.14658114 0.14906514 -0.23480912 0.08767635 0.15514787 -0.5713106 0.056553125 -0.33262405 0.11400884 -0.13215435 0.75765485 0.4682297 -0.17724365 0.15266404 0.26726288 0.05633824 0.09847221 0.39653692 -0.2340151 -0.17177488 -0.26685628 -0.41902044 0.08314643 -0.092042424 -0.10232784 -0.6097887 0.03246161 0.32318664 -0.19271858 0.14235784 -0.107238844 -0.36238164 0.040418956 0.2757056 0.077391826 -0.1014589 -0.55420184 -0.17852756 0.041999865 0.1290002 0.0465715 -0.15302576 0.75620323 -0.14259306 -0.2369372 0.01583296 -0.9197572 0.36792117 0.29231495 -0.035740033 0.22000004 -0.3395645 0.11442258 0.33335158 -0.21698523 0.23144345 0.15502784 -0.05153881 -0.07440899 -0.12374464 0.21970443 -0.17122659 -0.3543161 0.20605771 0.38407233 -0.14903025 0.20560883 -0.26804823 -0.30024126 -0.29256588 0.3563989 0.15118743 -0.23658273 0.4252482 -0.18199982 -0.28149176 -0.279546 0.044493977 -0.2688057 0.038957346 -0.52136797 -0.17603628 0.046086047 0.1585421 0.10213424 0.042874403 0.21645191 -0.6133329 0.29596633 0.22333713 0.07280319 0.18006407 0.5211134 -0.3671928 0.28461993 0.11115989 -0.18802796 0.68233496 -0.5431309 0.1775926 -0.5602551 0.09448801 0.18253322
252 0.11308865 -0.44207686 -0.28965276 -0.007343955 -0.013350589 -0.25868338 0.20420003 -0.05977109 0.044354215 -0.45411184 -0.47217718 -0.25900072 -0.23154563 -0.34347552 0.4376418 0.23560777 0.33366886 -0.016837291 -0.62341577 0.05581294 -0.18670462 0.095739886 -0.5062163 0.02129225 -0.010902509 -0.20916326 -0.33453733 -0.43496275 0.20354497 -0.18780595 -0.703772 -0.121582754 -0.26507416 0.18688151 0.071889624 0.6088693 0.7149543 0.05328485 -0.2864624 0.18346243 0.010393243 0.17403159 -0.24677752 -0.090397574 -0.25441834 -0.66493106 0.20143667 0.5455548 0.23932362 -0.33452788 -0.69941294 -0.009190928 0.21082641 -0.15615174 0.37839794 0.14629523 -0.26863664 0.29950947 -0.110331714 0.5368712 0.34216914 -0.40809405 -0.1613175 -0.51069707 0.051865384 -0.07892698 -0.1446858 0.9001044 -0.10210624 0.16165861 -0.10944963 -0.52041364 0.28508866 0.12604812 -0.041466106 0.45516723 -0.16264465 0.2879543 0.29251185 -0.32503885 0.04058957 -0.06324868 0.33238345 -0.06497963 -0.10459375 -0.056627396 0.10214506 0.002538328 0.26627383 0.09796206 -0.29136235 -0.024237314 -0.3084129 -0.47798684 -0.021747136 0.13594595 0.115008205 -0.57276833 -0.13664772 -0.110928684 0.08899171 -0.31275085 0.36925864 0.35498875 -0.40558928 -0.12512985 -0.25266382 -0.027137129 0.043822683 0.1160024 -0.06803274 0.4335598 -0.37915495 -0.022125216 0.15159273 -0.102083825 -0.06650672 0.31723323 0.07555965 0.048328333 0.120934896 -0.10119552 0.5146138 -0.23401842 0.6589413 -0.59896445 0.18702465 -0.0054736193
135 0.10592257 -0.3837478 -0.2221149 -0.23189157 -0.07513323 -0.75124586 0.14484972 -0.051488668 0.0898981 -0.18857189 0.15432778 -0.13526995 -0.46749625 0.3823932 0.51414573 -0.36078522 0.3785103 -0.3706331 -0.5366782 -0.30202627 0.3003643 -0.32453436 0.4987835 0.2184452 0.23734395 -1.1195925 0.020357968 -0.3082646 0.2727152 0.119175024 -0.1457628 -0.19767141 -0.28580338 -0.20170498 -0.2746703 0.5826282 -0.11267143 -0.3457361 0.3090484 0.4498539 -0.6441532 -0.12132719 0.12192322 0.25423023 -0.33114353 0.021292564 0.6167022 -0.40992063 0.44246098 -0.13428068 0.0053344877 -0.26546672 -0.28531927 -0.48506653 -0.4946663 -0.39318568 0.060407206 -0.32386428 0.23312873 0.77188325 1.0335503 -0.10985986 -0.12447113 -0.046809014 -0.0709148 -0.109006874 -0.31106454 0.052686363 0.06112281 0.27089244 -0.44479984 -0.34147766 -0.050115228 0.028181579 0.16031697 -0.22944415 0.00058125023 0.27272946 0.16584614 0.100186445 0.46401796 0.15154417 -0.20394418 0.20286973 0.022006052 -0.11111404 0.1548168 -0.24018769 -0.13763653 0.5460342 -0.32092258 0.30096456 -0.26491228 -0.54968154 -0.2612727 -0.11588617 0.34009594 -0.66109544 0.36362374 0.0011183384 0.46524262 0.25853357 0.31788766 0.02669387 -0.6760553 -0.29959223 0.12557995 0.6633211 0.18060935 0.024098929 -0.06971875 0.54917145 -0.19220829 0.075435214 0.11173953 -0.15365951 -0.25347495 0.09422463 0.15743679 0.06461411 0.08638195 0.23021115 0.56684816 0.5197575 0.72681284 -0.61863303 0.05459968 -0.17143299
334 -0.082014486 0.12609158 -0.018751426 -0.29314694 0.34259906 -0.00790577 0.017216375 -0.17453595 0.020724887 -0.6705515 -0.3473589 -0.3703582 0.30420732 -0.35605493 -0.09381939 -0.009730631 0.06220529 0.4020866 0.104928255 -0.38125595 0.2400003 0.21403624 0.13327189 0.46368212 0.021064041 -0.14183769 0.30746177 -0.00250875 -0.065556906 -0.12809233 -0.1870051 -0.2220701 -0.10723622 0.20131089 0.13410862 0.6925937 0.23939161 -0.4194475 0.21076496 0.5477031 -0.41415444 -0.19268319 0.25361913 0.23704883 -0.277142 0.36469987 -0.23258579 -0.16612513 0.41731602 -0.07515379 -0.06404707 -0.019305592 -0.2744134 -0.15680589 0.35783157 -0.33135587 -0.098779686 -0.049122475 0.07982641 0.7425717 0.21438377 0.4158456 -0.17299606 0.045777757 0.8887134 0.2621119 -0.43064967 1.1663305 -0.237744 -0.0024352258 -0.6666666 -0.7739666 -0.03823954 0.10052352 -0.48065555 -0.012642925 -0.5040105 0.03622878 0.2416089 -0.086054936 0.06097129 0.2429074 0.24595991 0.14551672 -0.6759534 -0.1954852 -0.06715116 -0.28232682 -0.23183084 -0.31885058 0.07477703 -0.18680744 -0.48326525 -0.2507269 -0.21780051 0.10461823 0.19395521 -0.22045964 0.27566162 -0.3376862 -0.14780189 -0.32468954 0.011058069 -0.16017576 -0.6122966 -0.004494459 0.07475583 -0.19042115 0.103899464 0.37358648 0.15145801 0.55512995 -0.36652702 -0.07773949 0.5276187 -0.07122029 -0.11352376 0.2577138 -0.23625205 0.12572774 0.11856626 -0.22720194 0.17119102 -0.49969757 0.37856072 -0.8158432 -0.3548167 -0.29068494
472 -0.085946724 -0.20792606 -0.23252994 -0.06851549 0.20639734 -0.12301472 -0.08704277 -0.2581805 0.16571456 -0.43386066 -0.15644754 -0.4510883 0.42514637 -0.3771828 0.037748486 -0.15553072 0.35495067 0.28893945 0.16133162 -0.13568321 0.31597483 0.26185057 0.09988195 0.57890236 0.24785188 0.06778121 0.4106566 -0.13768342 -0.19376731 0.0035250229 -0.11099431 -0.08076479 0.006239205 0.119270556 0.16542499 0.5845578 0.121084824 -0.09966933 0.10016407 0.041666538 -0.45274147 -0.34570894 0.22384335 0.03356045 -0.26627925 0.17088173 -0.22646376 0.14049718 0.55098546 0.09843538 -0.4554517 0.1444834 0.026782878 0.14691249 0.3314355 -0.45991647 -0.09765562 -0.52088207 0.15425973 0.32804978 -0.073610075 0.12078264 0.16509418 -0.014112154 0.43203825 0.39723757 -0.36665642 0.9625796 -0.4307084 0.05055272 -0.3634603 -0.19444922 0.042684 0.21377937 -0.3873651 -0.17035273 0.11860944 0.20919608 0.44731683 0.17691436 0.09213779 0.010804913 0.04805985 0.31750208 -0.30700547 -0.3502098 -0.120268054 -0.3931524 -0.4021419 -0.03871665 -0.18596464 -0.29306507 -0.1329025 -0.31149596 -0.23401804 0.16123843 -0.1311033 -0.22021753 0.2543415 -0.20844202 -0.33094937 -0.10949099 0.27408114 -0.05703578 -0.47210923 -0.009803043 -0.09627197 -0.09649582 0.1797994 0.16197942 0.05290265 0.37377146 -0.31073263 -0.05953463 0.11023104 -0.25237826 0.15495107 0.6229477 -0.37716967 0.19885255 0.06736836 -0.222768 0.27776858 -0.6766113 0.073097035 -0.533436 -0.5009214 -0.19291678
122 -0.043805793 -0.29129127 -0.27618158 -0.024523297 0.051126897 -0.28671253 -0.026862646 -0.13948317 0.06753325 -0.59849674 -0.26014903 -0.26774454 -0.22036764 -0.4768505 0.55261356 0.094455 0.4198465 -0.28012148 -0.61968464 0.16706678 -0.35403264 0.11023193 -0.5980478 0.01815995 0.090392716 -0.33504233 -0.29764178 -0.35241714 0.17785765 -0.3001856 -0.6249999 0.108181834 -0.11999508 0.18567477 0.012896229 0.7307653 0.63574773 0.10446697 -0.3201957 0.048466682 -0.09850022 0.3112445 -0.14662308 0.014735888 -0.21571115 -0.71699303 0.49646607 0.49372354 0.28449664 -0.4689061 -0.6278929 0.045456275 0.18141925 0.07050709 0.56721014 0.057493083 -0.21110654 0.29571795 -0.034493152 0.4307723 0.31733137 0.026883435 -0.1543249 -0.47016466 0.011746461 -0.020436568 -0.27083927 0.9542738 -0.19603421 0.12056244 -0.21239725 -0.33579856 0.15890941 0.03271733 -0.04013715 0.4539218 -0.2240413 0.38690245 0.10640997 -0.21117432 0.037033606 -0.012937302 0.45478 0.12115653 -0.15158032 -0.10975871 0.23757038 -0.025176276 0.14031303 -0.03338347 -0.15604281 -0.08282448 -0.23519096 -0.65499866 0.0989516 -0.03533257 -0.08433204 -0.5478684 -0.16045754 -0.23810592 0.23012507 -0.12386684 0.43802026 0.3153959 -0.54471785 0.018297471 -0.02571743 -0.015634097 -0.027842028 -0.030481316 -0.15034296 0.38555467 -0.3133568 0.039417915 0.28457034 -0.05714414 -0.07303389 0.12476229 0.15648009 -0.23105048 0.01967246 0.03763908 0.5470613 -0.16935365 0.6625486 -0.5395001 0.19918437 0.0177496
124 0.07796582 -0.53075707 -0.3312598 0.0596999 -0.10429724 -0.22919403 0.41844386 -0.18162708 -0.031969126 -0.5639011 -0.56198764 -0.3703077 -0.1419926 -0.22726403 0.15928686 0.3897296 0.41659144 0.33419925 -0.42701203 -0.043643415 -0.07232012 -0.014235393 -0.23225915 0.08565962 -0.036071215 0.041975867 -0.2362899 -0.21532403 0.14540832 0.039922763 -0.6419175 -0.13325301 -0.32178515 0.14321184 -0.00971029 0.61351407 0.60861874 -0.17852539 -0.12742393 0.18675172 0.22687685 0.14495894 -0.0042366683 -0.19733572 -0.33531076 -0.6036635 -0.19945665 0.47954944 0.2261694 -0.37710983 -0.6121791 0.04851974 0.28436553 -0.2258373 0.18165562 -0.023992777 -0.29419422 0.2776024 0.13580854 0.20767249 0.07509697 -0.55469024 -0.12588197 -0.44024488 0.08549612 -0.023900483 -0.17048995 0.9025956 -0.2875178 -0.04631345 -0.096250065 -0.58405983 0.45394915 0.10934059 0.09961481 0.40244427 -0.1304288 0.14153215 0.3415732 -0.33494264 0.16996238 0.07111696 0.14204468 -0.14832415 -0.21257669 0.0068704616 -0.16783671 -0.3152483 0.5067431 0.16909695 -0.07615634 0.1353536 -0.22215374 -0.31950995 -0.11206591 0.12960155 0.03872606 -0.34907153 0.1648476 -0.023922754 -0.23949824 -0.33630067 0.16762376 0.105551444 -0.06927704 -0.22503994 -0.41443166 0.039306093 0.03961754 0.08530176 -0.0101578925 0.19265877 -0.40145886 0.21697988 0.26040292 -0.13358095 0.040667213 0.5792447 0.06425622 0.27787033 0.12155132 -0.31646314 0.39848188 -0.15393157 0.3693486 -0.66958886 0.032181453 0.047938414
509 0.11559096 0.23051074 -0.2591391 0.3995049 0.29489228 -0.07896957 -0.37701318 -0.07200062 0.03829014 -0.8211117 -0.4181256 0.16428682 0.04975418 -0.15966146 0.37968987 -0.15447146 -0.122033045 0.0135817565 -0.24488543 -0.2556855 -0.053682704 0.07869384 -0.18279485 0.6680349 0.2591381 -0.5931231 -0.1002885 0.29648682 0.3500403 -0.11915194 0.043767434 0.41837108 0.17937341 -0.091282085 0.16902357 0.5065943 0.66037154 -0.48344615 -0.119941674 0.041137733 -0.6420458 0.29362914 0.2751132 0.14298862 -0.6682935 0.028692864 0.33773288 -0.10920065 0.7809848 -0.22798716 -0.15929618 0.08969487 -0.3500952 -0.07890794 -0.117988504 -0.47593787 -0.21350417 0.23049 0.16616806 -0.39500377 0.046541415 -0.19047634 -0.15556206 0.03688166 0.061737265 0.17503819 -0.42419314 0.25745997 -0.1731221 -0.17608723 -0.69389075 -0.19688964 -0.28749394 0.1097761 0.33805934 -0.265628 -0.12861045 0.68948126 0.0026794241 0.7279686 0.1673352 0.5090716 -0.43356112 0.4733913 0.0058863712 -0.2386961 -0.764191 -0.39651057 -0.05733604 -0.0015631518 -0.56304604 -0.21130826 -0.052036826 -0.35833326 -0.23779167 0.08520515 -0.43641177 0.15104194 0.01070103 0.06838648 -0.48332956 0.102091454 0.41107798 0.1065892 -0.92513585 -0.33962888 0.38574293 0.2032742 0.16384777 -0.04394009 -0.2815555 0.19365859 -0.24664931 -0.026468344 0.2271383 0.3797369 0.4914029 0.15794235 -0.060526766 -0.12505351 -0.44979477 0.082589924 0.55932045 0.5100946 0.2976475 -0.20449206 -0.062218282 -0.5577737
696 -0.025119336 -0.013187548 -0.21309926 -0.348891 0.09049477 -0.13680977 -0.09738262 -0.7243169 0.09514368 -0.36727428 -0.45136145 -0.28831366 0.35446048 -0.23250972 0.15536742 -0.4277497 0.18731251 0.40761364 0.099306546 0.04771177 0.5468912 0.3736686 0.06820794 -0.008319423 0.22389013 -0.33851337 0.2182827 0.09555675 -0.12031549 -0.22410686 0.051051088 -0.14121701 0.22512564 -0.05115241 0.11833605 0.19149669 0.30487528 -0.035581887 0.14243335 0.13759004 -0.30550337 0.16118269 0.20694327 -0.0152277965 -0.26269183 0.2789011 0.079391725 0.06627229 0.13099019 0.09947699 -0.14822789 -0.042768467 0.14872016 0.093076356 0.034873217 -0.2689424 -0.01227262 -0.46758398 -0.02731353 0.71635795 0.058291063 -0.048646737 -0.018865937 -0.14846653 0.058336318 0.065378636 -0.049150147 0.38282526 -0.51542443 0.31117722 -0.57726294 -0.73522925 0.08899131 -0.008675806 -0.07490953 -0.03667583 -0.5875804 0.3886564 0.13211349 0.16722009 0.10803653 -0.09466845 0.0064503234 -0.18464172 -0.11845903 -0.44984856 -0.21675834 -0.23917092 -0.44361997 -0.09720803 -0.7523058 -0.37627488 -0.15176009 -0.32703754 -0.32771334 0.15866233 0.22605523 -0.3179999 -0.15123813 0.36494946 -0.24960467 0.03766427 -0.03584959 0.04561601 -0.733258 -0.33657077 0.35364655 -0.3480205 0.2526067 -0.16949414 0.146979 -0.07896256 0.041307308 -0.14053741 -0.05449128 -0.024350611 0.32885852 0.2691563 -0.2722458 -0.039249115 -0.0060863043 0.3597807 -0.0031760905 -0.07958946 0.0008761322 -0.37267113 0.031087657 -0.24122262
704 -0.11267619 0.081483275 -0.5002924 0.19246967 0.26358545 -0.27524716 0.11585705 -0.40314236 0.064691156 -0.46851853 0.16806959 0.14407396 0.050020617 -0.4403738 0.4400607 -0.48839602 0.2531959 0.022676526 -0.31796086 0.19187127 0.35948184 0.118765615 -0.31707418 0.2662483 0.8059277 -0.40279654 0.37058592 -0.044859037 -0.5566021 -0.016746633 -0.05784407 -0.065919794 0.2949402 -0.0725999 -0.14094855 0.92812485 0.2376684 0.0053551886 0.18575309 -0.19469535 -0.6929183 0.10012668 0.76778424 0.2626078 -0.2923264 0.3378482 0.30331218 0.12089836 0.4819942 0.17857791 -0.19655368 0.34630397 0.29743132 -0.47010866 0.11789615 0.13699652 -0.44851437 -0.046865664 0.1696116 -0.012801104 -0.023069892 -0.18408385 -0.084986895 -0.2071394 0.4705603 0.6613522 -0.21883729 0.3404992 -0.8600477 0.504926 -0.19675623 -0.15297228 0.16212538 -0.33791474 -0.32865095 -0.17771074 0.063469216 0.42796052 0.84461945 0.59972453 0.25374696 0.2818806 -0.2543608 0.32898435 -0.17281027 -0.16536638 0.5228349 -0.75145996 -0.33859843 -0.0068390635 -0.1649461 0.64902216 0.13052103 -0.71973276 -0.075521745 -0.53701276 0.058277447 -0.19931203 0.31673825 -0.568813 -0.6745097 0.105932735 0.45096618 -0.3479045 -0.43713504 -0.20863548 -0.053978547 -0.18253726 0.044694193 0.28646713 0.21820213 0.3611833 -0.34229186 0.48515335 0.06378496 0.16487376 -0.076780595 0.35155177 -0.14770027 -0.12579882 -0.24665108 0.5485682 1.0151262 -0.07535683 0.50572807 -0.63376766 -0.56136996 0.2667273
